{"learner":{"attributes":{"scikit_learn":"{\"_estimator_type\": \"classifier\"}"},"feature_names":["pattern_is_fanin","num_accounts","num_txids","amt_mean","amt_std","amt_min","amt_max","amt_cv","trigger_amount","ts_span","target_in_deg","target_out_deg","target_resend"],"feature_types":["float","float","float","float","float","float","float","float","float","float","float","float","float"],"gradient_booster":{"model":{"gbtree_model_param":{"num_parallel_tree":"1","num_trees":"300"},"iteration_indptr":[0,1,2,3,4,5,6,7,8,9,10,11,12,13,14,15,16,17,18,19,20,21,22,23,24,25,26,27,28,29,30,31,32,33,34,35,36,37,38,39,40,41,42,43,44,45,46,47,48,49,50,51,52,53,54,55,56,57,58,59,60,61,62,63,64,65,66,67,68,69,70,71,72,73,74,75,76,77,78,79,80,81,82,83,84,85,86,87,88,89,90,91,92,93,94,95,96,97,98,99,100,101,102,103,104,105,106,107,108,109,110,111,112,113,114,115,116,117,118,119,120,121,122,123,124,125,126,127,128,129,130,131,132,133,134,135,136,137,138,139,140,141,142,143,144,145,146,147,148,149,150,151,152,153,154,155,156,157,158,159,160,161,162,163,164,165,166,167,168,169,170,171,172,173,174,175,176,177,178,179,180,181,182,183,184,185,186,187,188,189,190,191,192,193,194,195,196,197,198,199,200,201,202,203,204,205,206,207,208,209,210,211,212,213,214,215,216,217,218,219,220,221,222,223,224,225,226,227,228,229,230,231,232,233,234,235,236,237,238,239,240,241,242,243,244,245,246,247,248,249,250,251,252,253,254,255,256,257,258,259,260,261,262,263,264,265,266,267,268,269,270,271,272,273,274,275,276,277,278,279,280,281,282,283,284,285,286,287,288,289,290,291,292,293,294,295,296,297,298,299,300],"tree_info":[0,0,0,0,0,0,0,0,0,0,0,0,0,0,0,0,0,0,0,0,0,0,0,0,0,0,0,0,0,0,0,0,0,0,0,0,0,0,0,0,0,0,0,0,0,0,0,0,0,0,0,0,0,0,0,0,0,0,0,0,0,0,0,0,0,0,0,0,0,0,0,0,0,0,0,0,0,0,0,0,0,0,0,0,0,0,0,0,0,0,0,0,0,0,0,0,0,0,0,0,0,0,0,0,0,0,0,0,0,0,0,0,0,0,0,0,0,0,0,0,0,0,0,0,0,0,0,0,0,0,0,0,0,0,0,0,0,0,0,0,0,0,0,0,0,0,0,0,0,0,0,0,0,0,0,0,0,0,0,0,0,0,0,0,0,0,0,0,0,0,0,0,0,0,0,0,0,0,0,0,0,0,0,0,0,0,0,0,0,0,0,0,0,0,0,0,0,0,0,0,0,0,0,0,0,0,0,0,0,0,0,0,0,0,0,0,0,0,0,0,0,0,0,0,0,0,0,0,0,0,0,0,0,0,0,0,0,0,0,0,0,0,0,0,0,0,0,0,0,0,0,0,0,0,0,0,0,0,0,0,0,0,0,0,0,0,0,0,0,0,0,0,0,0,0,0,0,0,0,0,0,0,0,0,0,0,0,0,0,0,0,0,0,0,0,0,0,0,0,0],"trees":[{"base_weights":[-1.4512249E-3,1.8683672E0,-1.2866786E0,-1.8947369E-1,1.9114733E0,-1.5715479E0,1.1995112E0,1.9340008E0,-1.804878E-1,1.5774655E0,-1.6829346E0,-1.9500001E-1,1.8056841E0,1.9382921E-1,-1.2727273E-1,-1.7575757E-1,1.9697505E-1,-1.3792902E-1,-1.9980173E-1,1.8859129E-1,-1.6190477E-1],"categories":[],"categories_nodes":[],"categories_segments":[],"categories_sizes":[],"default_left":[0,0,0,0,0,0,0,0,0,0,0,0,0,0,0,0,0,0,0,0,0],"id":0,"left_children":[1,3,5,-1,7,9,11,13,-1,15,17,-1,19,-1,-1,-1,-1,-1,-1,-1,-1],"loss_changes":[9.635616E3,2.6856885E2,1.6848452E3,0E0,1.3872705E2,7.5061523E2,4.7097675E2,2.4567383E1,0E0,9.944678E1,1.9433447E2,0E0,5.9613342E1,0E0,0E0,0E0,0E0,0E0,0E0,0E0,0E0],"parents":[2147483647,0,0,1,1,2,2,4,4,5,5,6,6,7,7,9,9,10,10,12,12],"right_children":[2,4,6,-1,8,10,12,14,-1,16,18,-1,20,-1,-1,-1,-1,-1,-1,-1,-1],"split_conditions":[5.01E0,2E0,4.4E1,-1.8947369E-1,1.3E1,3.8394517E-1,1.2918E1,1.1085E1,-1.804878E-1,5E0,1.723E1,-1.9500001E-1,1.772E1,1.9382921E-1,-1.2727273E-1,-1.7575757E-1,1.9697505E-1,-1.3792902E-1,-1.9980173E-1,1.8859129E-1,-1.6190477E-1],"split_indices":[5,9,11,0,2,4,3,3,0,1,6,0,6,0,0,0,0,0,0,0,0],"split_type":[0,0,0,0,0,0,0,0,0,0,0,0,0,0,0,0,0,0,0,0,0],"sum_hessian":[4.0075913E3,1.6323322E3,2.375259E3,1.8E1,1.6143322E3,2.1314087E3,2.4385037E2,1.6050822E3,9.25E0,7.236679E1,2.059042E3,3.9E1,2.0485037E2,1.6033322E3,1.75E0,7.25E0,6.511679E1,1.051292E3,1.00775E3,2.0060037E2,4.25E0],"tree_param":{"num_deleted":"0","num_feature":"13","num_nodes":"21","size_leaf_vector":"1"}},{"base_weights":[2.5941623E-2,1.6965396E0,-1.1051323E0,1.7569779E0,-1.899281E-1,-1.373553E0,1.1442858E0,-1.6909043E-1,1.7847903E0,5.2137643E-1,-1.5478925E0,1.5975004E0,-1.7725837E-1,1.6979994E-1,1.8139164E-1,-1.8057683E-1,1.1353339E-1,-9.5919274E-2,-1.7160767E-1,-1.5911792E-1,1.7030498E-1],"categories":[],"categories_nodes":[],"categories_segments":[],"categories_sizes":[],"default_left":[0,0,0,0,0,0,0,0,0,0,0,0,0,0,0,0,0,0,0,0,0],"id":1,"left_children":[1,3,5,7,-1,9,11,-1,13,15,17,19,-1,-1,-1,-1,-1,-1,-1,-1,-1],"loss_changes":[7.654892E3,3.5877002E2,1.4601157E3,1.5730908E2,0E0,7.13916E2,3.4399417E2,0E0,9.560547E-1,2.6295984E2,1.9409277E2,7.806354E1,0E0,0E0,0E0,0E0,0E0,0E0,0E0,0E0,0E0],"parents":[2147483647,0,0,1,1,2,2,3,3,5,5,6,6,8,8,9,9,10,10,11,11],"right_children":[2,4,6,8,-1,10,12,-1,14,16,18,20,-1,-1,-1,-1,-1,-1,-1,-1,-1],"split_conditions":[5.01E0,2.7E1,4.4E1,2E0,-1.899281E-1,5E0,4.6E1,-1.6909043E-1,7E0,7.99E0,5.46E0,6E0,-1.7725837E-1,1.6979994E-1,1.8139164E-1,-1.8057683E-1,1.1353339E-1,-9.5919274E-2,-1.7160767E-1,-1.5911792E-1,1.7030498E-1],"split_indices":[5,10,11,9,0,10,11,0,1,5,5,9,0,0,0,0,0,0,0,0,0],"split_type":[0,0,0,0,0,0,0,0,0,0,0,0,0,0,0,0,0,0,0,0,0],"sum_hessian":[4.0491372E3,1.6344911E3,2.414646E3,1.6079758E3,2.6515337E1,2.1575742E3,2.570717E2,1.238848E1,1.5955873E3,1.8161166E2,1.9759626E3,2.2289175E2,3.4179947E1,4.1581882E2,1.1797684E3,3.750636E1,1.441053E2,4.4056033E2,1.5354022E3,6.69062E0,2.1620113E2],"tree_param":{"num_deleted":"0","num_feature":"13","num_nodes":"21","size_leaf_vector":"1"}},{"base_weights":[-7.813327E-3,1.5658053E0,-1.0456952E0,1.6243347E0,-1.75712E-1,-1.2561066E0,9.555877E-1,-1.5614703E-1,1.649655E0,4.5983472E-1,-1.4184043E0,-1.6572656E-1,1.5182294E0,1.6539891E-1,-1.3023332E-1,-1.6685687E-1,1.0209852E-1,-8.5778385E-2,-1.579076E-1,1.574793E-1,-1.6737373E-1],"categories":[],"categories_nodes":[],"categories_segments":[],"categories_sizes":[],"default_left":[0,0,0,0,0,0,0,0,0,0,0,0,0,0,0,0,0,0,0,0,0],"id":2,"left_children":[1,3,5,7,-1,9,11,-1,13,15,17,-1,19,-1,-1,-1,-1,-1,-1,-1,-1],"loss_changes":[6.29122E3,3.0059644E2,9.786035E2,1.239707E2,0E0,5.8568945E2,3.2797992E2,0E0,2.126294E1,2.1940756E2,1.7154126E2,0E0,3.5619385E1,0E0,0E0,0E0,0E0,0E0,0E0,0E0,0E0],"parents":[2147483647,0,0,1,1,2,2,3,3,5,5,6,6,8,8,9,9,10,10,12,12],"right_children":[2,4,6,8,-1,10,12,-1,14,16,18,-1,20,-1,-1,-1,-1,-1,-1,-1,-1],"split_conditions":[5.01E0,2.7E1,4.4E1,2E0,-1.75712E-1,5E0,1.2918E1,-1.5614703E-1,1.1085E1,7.99E0,5.46E0,-1.6572656E-1,2.1128E2,1.6539891E-1,-1.3023332E-1,-1.6685687E-1,1.0209852E-1,-8.5778385E-2,-1.579076E-1,1.574793E-1,-1.6737373E-1],"split_indices":[5,10,11,9,0,10,3,0,3,5,5,0,8,0,0,0,0,0,0,0,0],"split_type":[0,0,0,0,0,0,0,0,0,0,0,0,0,0,0,0,0,0,0,0,0],"sum_hessian":[3.8500078E3,1.5298965E3,2.3201113E3,1.503918E3,2.5978537E1,2.0997224E3,2.2038889E2,1.1380278E1,1.4925377E3,1.8127754E2,1.918445E3,3.870431E1,1.8168457E2,1.4907886E3,1.7490691E0,3.7410126E1,1.4386742E2,4.28756E2,1.489689E3,1.7901888E2,2.665688E0],"tree_param":{"num_deleted":"0","num_feature":"13","num_nodes":"21","size_leaf_vector":"1"}},{"base_weights":[2.4245206E-2,1.1063452E0,-5.395625E-1,-1.2044251E0,1.33289E0,4.484892E-2,-1.3054502E0,1.4000428E-1,-1.6171181E-1,1.4075851E0,-1.6140482E-1,-1.1019765E0,1.0877812E0,-1.5210406E0,1.4861686E0,-1.4444049E-1,1.4318685E-1,1.1250744E-1,-1.6546589E-1,-1.6160956E-1,1.2877944E-1,-1.6132973E-1,-9.38092E-3,-1.2308105E-1,1.568527E-1],"categories":[],"categories_nodes":[],"categories_segments":[],"categories_sizes":[],"default_left":[0,0,0,0,0,0,0,0,0,0,0,0,0,0,0,0,0,0,0,0,0,0,0,0,0],"id":3,"left_children":[1,3,5,7,9,11,13,-1,-1,15,-1,17,19,21,23,-1,-1,-1,-1,-1,-1,-1,-1,-1,-1],"loss_changes":[2.3425762E3,6.901456E2,1.1299741E3,1.2905334E2,2.6604858E2,1.7149349E3,6.598424E2,0E0,0E0,8.304443E1,0E0,8.424288E2,4.0817664E2,1.3346533E2,1.9571411E1,0E0,0E0,0E0,0E0,0E0,0E0,0E0,0E0,0E0,0E0],"parents":[2147483647,0,0,1,1,2,2,3,3,4,4,5,5,6,6,9,9,11,11,12,12,13,13,14,14],"right_children":[2,4,6,8,10,12,14,-1,-1,16,-1,18,20,22,24,-1,-1,-1,-1,-1,-1,-1,-1,-1,-1],"split_conditions":[8.976666E0,2.6956806E-1,1.723E1,5.1E0,2.3E1,1.65E1,6.3960457E-1,1.4000428E-1,-1.6171181E-1,2E0,-1.6140482E-1,5E0,1E0,4.4E1,8E0,-1.4444049E-1,1.4318685E-1,1.1250744E-1,-1.6546589E-1,-1.6160956E-1,1.2877944E-1,-1.6132973E-1,-9.38092E-3,-1.2308105E-1,1.568527E-1],"split_indices":[3,7,6,8,10,6,7,0,0,9,0,10,11,11,10,0,0,0,0,0,0,0,0,0,0],"split_type":[0,0,0,0,0,0,0,0,0,0,0,0,0,0,0,0,0,0,0,0,0,0,0,0,0],"sum_hessian":[3.8377046E3,1.3142808E3,2.5234238E3,1.16960495E2,1.1973203E3,1.4318163E3,1.0916075E3,1.56708355E1,1.0128966E2,1.1682318E3,2.9088465E1,6.819149E2,7.4990137E2,1.01377136E3,7.783612E1,9.369243E0,1.1588625E3,1.353763E2,5.465386E2,5.116379E1,6.987376E2,9.5209705E2,6.1674316E1,1.8797348E0,7.595639E1],"tree_param":{"num_deleted":"0","num_feature":"13","num_nodes":"25","size_leaf_vector":"1"}},{"base_weights":[2.6565963E-2,1.0542165E0,-5.341328E-1,-1.1470144E0,1.2695338E0,-1.4031993E0,-1.199609E-1,1.3259959E-1,-1.5251088E-1,1.3396695E0,-1.5195134E-1,3.5265297E-1,-1.5367451E-1,3.3961195E-1,-1.1007096E0,-1.369463E-1,1.3624969E-1,1.05693795E-1,-1.588534E-1,-1.0033587E-1,9.643176E-2,-1.523077E-1,1.3942291E-1],"categories":[],"categories_nodes":[],"categories_segments":[],"categories_sizes":[],"default_left":[0,0,0,0,0,0,0,0,0,0,0,0,0,0,0,0,0,0,0,0,0,0,0],"id":4,"left_children":[1,3,5,7,9,11,13,-1,-1,15,-1,17,-1,19,21,-1,-1,-1,-1,-1,-1,-1,-1],"loss_changes":[2.1346753E3,6.2129956E2,8.6260254E2,1.1146849E2,2.3515393E2,1.8192688E2,7.32544E2,0E0,0E0,7.379077E1,0E0,7.753992E1,0E0,9.295923E2,5.4856396E2,0E0,0E0,0E0,0E0,0E0,0E0,0E0,0E0],"parents":[2147483647,0,0,1,1,2,2,3,3,4,4,5,5,6,6,9,9,11,11,13,13,14,14],"right_children":[2,4,6,8,10,12,14,-1,-1,16,-1,18,-1,20,22,-1,-1,-1,-1,-1,-1,-1,-1],"split_conditions":[8.976666E0,2.6956806E-1,1E0,5.665E0,2.3E1,5E0,1.772E1,1.3259959E-1,-1.5251088E-1,2E0,-1.5195134E-1,1.614E1,-1.5367451E-1,1.65E1,6.3960457E-1,-1.369463E-1,1.3624969E-1,1.05693795E-1,-1.588534E-1,-1.0033587E-1,9.643176E-2,-1.523077E-1,1.3942291E-1],"split_indices":[3,7,11,3,10,10,6,0,0,9,0,6,0,6,7,0,0,0,0,0,0,0,0],"split_type":[0,0,0,0,0,0,0,0,0,0,0,0,0,0,0,0,0,0,0,0,0,0,0],"sum_hessian":[3.702755E3,1.3067886E3,2.3959663E3,1.16050835E2,1.1907377E3,7.7254E2,1.6234265E3,1.5057415E1,1.0099342E2,1.1620358E3,2.8701878E1,5.4488438E1,7.180515E2,1.1058743E3,5.1755225E2,9.216696E0,1.1528191E3,4.0316624E1,1.4171814E1,3.509049E2,7.5496936E2,4.4295416E2,7.459806E1],"tree_param":{"num_deleted":"0","num_feature":"13","num_nodes":"23","size_leaf_vector":"1"}},{"base_weights":[-7.088314E-3,1.3328285E0,-8.649366E-1,1.3807986E0,-1.438327E-1,-1.0412078E0,8.263937E-1,-1.3175634E-1,1.4020786E0,3.165786E-1,-1.1633084E0,1.2527456E0,-1.469196E-1,1.443523E-1,1.2859927E-1,8.865253E-2,-1.6480128E-1,-5.847233E-2,-1.3442689E-1,-1.2902914E-1,1.3488354E-1],"categories":[],"categories_nodes":[],"categories_segments":[],"categories_sizes":[],"default_left":[0,0,0,0,0,0,0,0,0,0,0,0,0,0,0,0,0,0,0,0,0],"id":5,"left_children":[1,3,5,7,-1,9,11,-1,13,15,17,19,-1,-1,-1,-1,-1,-1,-1,-1,-1],"loss_changes":[4.030907E3,1.8394556E2,6.3827185E2,7.913843E1,0E0,3.2144043E2,1.9988733E2,0E0,4.571045E0,1.8125711E2,1.8527686E2,4.35737E1,0E0,0E0,0E0,0E0,0E0,0E0,0E0,0E0,0E0],"parents":[2147483647,0,0,1,1,2,2,3,3,5,5,6,6,8,8,9,9,10,10,11,11],"right_children":[2,4,6,8,-1,10,12,-1,14,16,18,20,-1,-1,-1,-1,-1,-1,-1,-1,-1],"split_conditions":[5.01E0,2.7E1,4.4E1,2E0,-1.438327E-1,5E0,4.6E1,-1.3175634E-1,4.984299E0,1.614E1,5.46E0,6E0,-1.469196E-1,1.443523E-1,1.2859927E-1,8.865253E-2,-1.6480128E-1,-5.847233E-2,-1.3442689E-1,-1.2902914E-1,1.3488354E-1],"split_indices":[5,10,11,9,0,10,11,0,4,6,5,9,0,0,0,0,0,0,0,0,0],"split_type":[0,0,0,0,0,0,0,0,0,0,0,0,0,0,0,0,0,0,0,0,0],"sum_hessian":[3.5048247E3,1.3678135E3,2.1370112E3,1.3450321E3,2.2781422E1,1.9356602E3,2.01351E2,1.0047669E1,1.3349844E3,1.5957349E2,1.7760867E3,1.7019547E2,3.1155535E1,9.753389E2,3.5964548E2,1.2411522E2,3.5458263E1,4.2415796E2,1.3519287E3,5.7442603E0,1.644512E2],"tree_param":{"num_deleted":"0","num_feature":"13","num_nodes":"21","size_leaf_vector":"1"}},{"base_weights":[1.2798368E-2,1.2800988E0,-8.0012286E-1,1.3271291E0,-1.3731924E-1,-9.80261E-1,8.1105584E-1,-1.2614289E-1,1.3473074E0,1.5628497E-1,-1.0683249E0,-1.4026691E-1,1.2396666E0,1.3509437E-1,-1.07573666E-1,-1.4841838E-1,-8.1917964E-2,1.3194168E-1,-1.8717133E-1],"categories":[],"categories_nodes":[],"categories_segments":[],"categories_sizes":[],"default_left":[0,0,0,0,0,0,0,0,0,0,0,0,0,0,0,0,0,0,0],"id":6,"left_children":[1,3,5,7,-1,9,11,-1,13,-1,15,-1,17,-1,-1,-1,-1,-1,-1],"loss_changes":[3.471057E3,1.6612085E2,5.9653296E2,6.930005E1,0E0,4.1523743E2,1.9810904E2,0E0,1.2772949E1,0E0,1.8377136E2,0E0,4.5625122E1,0E0,0E0,0E0,0E0,0E0,0E0],"parents":[2147483647,0,0,1,1,2,2,3,3,5,5,6,6,8,8,10,10,12,12],"right_children":[2,4,6,8,-1,10,12,-1,14,-1,16,-1,18,-1,-1,-1,-1,-1,-1],"split_conditions":[5.01E0,2.7E1,4.4E1,2E0,-1.3731924E-1,1E0,1.2918E1,-1.2614289E-1,1.1085E1,1.5628497E-1,1.1463333E1,-1.4026691E-1,1.8922E2,1.3509437E-1,-1.07573666E-1,-1.4841838E-1,-8.1917964E-2,1.3194168E-1,-1.8717133E-1],"split_indices":[5,10,11,9,0,0,3,0,3,0,3,0,8,0,0,0,0,0,0],"split_type":[0,0,0,0,0,0,0,0,0,0,0,0,0,0,0,0,0,0,0],"sum_hessian":[3.367259E3,1.3156526E3,2.0516064E3,1.2932296E3,2.2423037E1,1.8456453E3,2.0596118E2,9.52715E0,1.2837025E3,6.1212162E1,1.7844331E3,3.304013E1,1.7292105E2,1.2822207E3,1.4818146E0,6.666847E2,1.1177484E3,1.691611E2,3.759959E0],"tree_param":{"num_deleted":"0","num_feature":"13","num_nodes":"19","size_leaf_vector":"1"}},{"base_weights":[6.564852E-3,1.2265669E0,-7.500981E-1,1.2737288E0,-1.3199343E-1,-9.213971E-1,7.989751E-1,1.3297552E-1,1.0588938E0,1.47554E-1,-1.0038366E0,-1.3475691E-1,1.2199734E0,-2.2141616E-1,1.3248838E-1,-6.8557E-2,-1.3713877E-1,1.2812291E-1,-1.6336334E-1],"categories":[],"categories_nodes":[],"categories_segments":[],"categories_sizes":[],"default_left":[0,0,0,0,0,0,0,0,0,0,0,0,0,0,0,0,0,0,0],"id":7,"left_children":[1,3,5,7,-1,9,11,-1,13,-1,15,-1,17,-1,-1,-1,-1,-1,-1],"loss_changes":[2.9537234E3,1.4878064E2,5.247733E2,1.3072632E1,0E0,3.5295312E2,1.7982822E2,0E0,2.2385495E2,0E0,2.0028003E2,0E0,3.0999329E1,0E0,0E0,0E0,0E0,0E0,0E0],"parents":[2147483647,0,0,1,1,2,2,3,3,5,5,6,6,8,8,10,10,12,12],"right_children":[2,4,6,8,-1,10,12,-1,14,-1,16,-1,18,-1,-1,-1,-1,-1,-1],"split_conditions":[5.01E0,2.7E1,4.4E1,4.984299E0,-1.3199343E-1,1E0,1.2918E1,1.3297552E-1,1.644E1,1.47554E-1,1.723E1,-1.3475691E-1,2.1128E2,-2.2141616E-1,1.3248838E-1,-6.8557E-2,-1.3713877E-1,1.2812291E-1,-1.6336334E-1],"split_indices":[5,10,11,4,0,0,3,0,6,0,6,0,8,0,0,0,0,0,0],"split_type":[0,0,0,0,0,0,0,0,0,0,0,0,0,0,0,0,0,0,0],"sum_hessian":[3.1976853E3,1.2238291E3,1.9738562E3,1.2020663E3,2.176281E1,1.7776825E3,1.9617372E2,9.493086E2,2.5275766E2,5.8546265E1,1.7191362E3,3.1805607E1,1.6436812E2,1.8446455E1,2.3431122E2,9.2287427E2,7.9626196E2,1.6145337E2,2.9147491E0],"tree_param":{"num_deleted":"0","num_feature":"13","num_nodes":"19","size_leaf_vector":"1"}},{"base_weights":[1.4982641E-3,1.1828353E0,-7.3356944E-1,-1.2032888E-1,1.2111568E0,-8.970503E-1,7.608309E-1,1.2252225E0,-1.1092564E-1,1.4040717E-1,-9.7589606E-1,-1.295055E-1,1.1387761E0,1.22861445E-1,-9.168437E-2,-1.3891016E-1,-7.289659E-2,1.2102753E-1,-1.3831823E-1],"categories":[],"categories_nodes":[],"categories_segments":[],"categories_sizes":[],"default_left":[0,0,0,0,0,0,0,0,0,0,0,0,0,0,0,0,0,0,0],"id":8,"left_children":[1,3,5,-1,7,9,11,13,-1,-1,15,-1,17,-1,-1,-1,-1,-1,-1],"loss_changes":[2.6488552E3,8.052661E1,4.6006873E2,0E0,3.911487E1,3.0897485E2,1.4596912E2,9.484497E0,0E0,0E0,1.6630444E2,0E0,3.0095047E1,0E0,0E0,0E0,0E0,0E0,0E0],"parents":[2147483647,0,0,1,1,2,2,4,4,5,5,6,6,7,7,10,10,12,12],"right_children":[2,4,6,-1,8,10,12,14,-1,-1,16,-1,18,-1,-1,-1,-1,-1,-1],"split_conditions":[5.01E0,2E0,4.4E1,-1.2032888E-1,1.3E1,1E0,1.2918E1,1.1085E1,-1.1092564E-1,1.4040717E-1,1.1463333E1,-1.295055E-1,1.772E1,1.22861445E-1,-9.168437E-2,-1.3891016E-1,-7.289659E-2,1.2102753E-1,-1.3831823E-1],"split_indices":[5,9,11,0,2,0,3,3,0,0,3,0,6,0,0,0,0,0,0],"split_type":[0,0,0,0,0,0,0,0,0,0,0,0,0,0,0,0,0,0,0],"sum_hessian":[3.0484028E3,1.16903E3,1.8793728E3,1.3226137E1,1.1558038E3,1.6944113E3,1.8496147E2,1.1493091E3,6.494774E0,5.5577198E1,1.6388341E3,2.8345512E1,1.5661597E2,1.1479177E3,1.3913053E0,6.112916E2,1.0275425E3,1.5280397E2,3.8119931E0],"tree_param":{"num_deleted":"0","num_feature":"13","num_nodes":"19","size_leaf_vector":"1"}},{"base_weights":[-5.4579573E-3,1.1405013E0,-6.7063665E-1,1.1906418E0,-1.2855645E-1,-8.191561E-1,7.2954816E-1,-1.1093634E-1,1.2076244E0,4.4725946E-1,-9.577141E-1,-1.2487557E-1,1.0921215E0,1.21125974E-1,-8.784061E-2,-1.3819563E-1,8.8865034E-2,-1.3258879E-1,-6.2325776E-2,1.14841595E-1,-1.4972757E-1],"categories":[],"categories_nodes":[],"categories_segments":[],"categories_sizes":[],"default_left":[0,0,0,0,0,0,0,0,0,0,0,0,0,0,0,0,0,0,0,0,0],"id":9,"left_children":[1,3,5,7,-1,9,11,-1,13,15,17,-1,19,-1,-1,-1,-1,-1,-1,-1,-1],"loss_changes":[2.1764775E3,1.2909375E2,3.7628943E2,4.14917E1,0E0,2.8711865E2,1.26013336E2,0E0,8.80542E0,1.3187231E2,1.8055786E2,0E0,2.3205444E1,0E0,0E0,0E0,0E0,0E0,0E0,0E0,0E0],"parents":[2147483647,0,0,1,1,2,2,3,3,5,5,6,6,8,8,9,9,10,10,12,12],"right_children":[2,4,6,8,-1,10,12,-1,14,16,18,-1,20,-1,-1,-1,-1,-1,-1,-1,-1],"split_conditions":[5.01E0,2.7E1,4.4E1,2E0,-1.2855645E-1,5E0,1.2918E1,-1.1093634E-1,1.1085E1,7.99E0,3.6072738E0,-1.2487557E-1,2.1128E2,1.21125974E-1,-8.784061E-2,-1.3819563E-1,8.8865034E-2,-1.3258879E-1,-6.2325776E-2,1.14841595E-1,-1.4972757E-1],"split_indices":[5,10,11,9,0,10,3,0,3,5,4,0,8,0,0,0,0,0,0,0,0],"split_type":[0,0,0,0,0,0,0,0,0,0,0,0,0,0,0,0,0,0,0,0,0],"sum_hessian":[2.8532634E3,1.0476588E3,1.8056045E3,1.0269438E3,2.0715017E1,1.6328237E3,1.7278082E2,7.055702E0,1.0198881E3,1.6080873E2,1.472015E3,2.6383072E1,1.4639775E2,1.01853253E3,1.3555787E0,3.0845915E1,1.2996281E2,6.992772E2,7.727378E2,1.438274E2,2.570366E0],"tree_param":{"num_deleted":"0","num_feature":"13","num_nodes":"21","size_leaf_vector":"1"}},{"base_weights":[5.090904E-3,2.3411107E-1,-1.2860434E-1,-7.342604E-1,5.852146E-1,-1.0104964E0,8.077056E-1,9.210867E-1,-2.720171E-1,1.06773935E-1,-1.24789394E-1,-1.7194432E-1,1.18853204E-1,6.877493E-2,2.0041417E-1,-1.2762903E-1,1.2080633E-1],"categories":[],"categories_nodes":[],"categories_segments":[],"categories_sizes":[],"default_left":[0,0,0,0,0,0,0,0,0,0,0,0,0,0,0,0,0],"id":10,"left_children":[1,3,-1,5,7,9,11,13,15,-1,-1,-1,-1,-1,-1,-1,-1],"loss_changes":[7.9372E2,7.7556854E2,0E0,2.5940454E2,4.8215356E2,2.555653E2,9.134512E1,3.0258734E2,7.030477E2,0E0,0E0,0E0,0E0,0E0,0E0,0E0,0E0],"parents":[2147483647,0,0,1,1,3,3,4,4,5,5,6,6,7,7,8,8],"right_children":[2,4,-1,6,8,10,12,14,16,-1,-1,-1,-1,-1,-1,-1,-1],"split_conditions":[2.7E1,2.8267795E-1,-1.2860434E-1,4.4E1,1.723E1,3.8394517E-1,1.4453333E1,1.703E1,6.3960457E-1,1.06773935E-1,-1.24789394E-1,-1.7194432E-1,1.18853204E-1,6.877493E-2,2.0041417E-1,-1.2762903E-1,1.2080633E-1],"split_indices":[10,7,0,11,6,4,3,6,7,0,0,0,0,0,0,0,0],"split_type":[0,0,0,0,0,0,0,0,0,0,0,0,0,0,0,0,0],"sum_hessian":[2.682227E3,2.278829E3,4.0339792E2,6.0609094E2,1.6727382E3,5.1430096E2,9.178996E1,1.2017902E3,4.7094806E2,5.2367275E1,4.6193372E2,1.1560423E1,8.022954E1,9.901118E2,2.1167834E2,2.8065442E2,1.9029367E2],"tree_param":{"num_deleted":"0","num_feature":"13","num_nodes":"17","size_leaf_vector":"1"}},{"base_weights":[-3.9567035E-2,1.08815E0,-7.046487E-1,1.1330237E0,-1.2046715E-1,-1.1776679E0,-4.366318E-1,-1.10942416E-1,1.1527405E0,-1.3273546E-1,-1.2499155E-1,-9.654984E-1,1.1099706E-1,1.15734056E-1,-9.2662945E-2,-1.4479727E-1,1.1493372E-1,-1.2014528E-1,-9.830454E-3,9.820398E-2,-1.2760867E-1],"categories":[],"categories_nodes":[],"categories_segments":[],"categories_sizes":[],"default_left":[0,0,0,0,0,0,0,0,0,0,0,0,0,0,0,0,0,0,0,0,0],"id":11,"left_children":[1,3,5,7,-1,9,11,-1,13,15,-1,17,19,-1,-1,-1,-1,-1,-1,-1,-1],"loss_changes":[1.8974684E3,9.79281E1,2.0122906E2,4.2000977E1,0E0,4.323993E1,2.947589E2,0E0,9.810425E0,6.624867E1,0E0,1.0580286E2,6.062196E2,0E0,0E0,0E0,0E0,0E0,0E0,0E0,0E0],"parents":[2147483647,0,0,1,1,2,2,3,3,5,5,6,6,8,8,9,9,11,11,12,12],"right_children":[2,4,6,8,-1,10,12,-1,14,16,-1,18,20,-1,-1,-1,-1,-1,-1,-1,-1],"split_conditions":[5.01E0,2.7E1,1E0,2E0,-1.2046715E-1,5E0,6E0,-1.10942416E-1,1.1085E1,3.536E1,-1.2499155E-1,1.46775E1,2.1E1,1.15734056E-1,-9.2662945E-2,-1.4479727E-1,1.1493372E-1,-1.2014528E-1,-9.830454E-3,9.820398E-2,-1.2760867E-1],"split_indices":[5,10,12,9,0,10,1,0,3,8,0,3,10,0,0,0,0,0,0,0,0],"split_type":[0,0,0,0,0,0,0,0,0,0,0,0,0,0,0,0,0,0,0,0,0],"sum_hessian":[2.527855E3,9.375324E2,1.5903225E3,9.200319E2,1.7500496E1,5.7395807E2,1.01636444E3,7.537146E0,9.1249475E2,3.730111E1,5.366569E2,5.166512E2,4.997133E2,9.10923E2,1.5717754E0,1.8348536E1,1.8952574E1,4.0584064E2,1.10810524E2,3.071348E2,1.9257848E2],"tree_param":{"num_deleted":"0","num_feature":"13","num_nodes":"21","size_leaf_vector":"1"}},{"base_weights":[-2.1359786E-2,3.5338014E-1,-7.63243E-1,5.4016554E-1,-1.22029446E-1,-1.0814813E0,9.475325E-1,-1.5366523E-1,1.0002246E0,-3.756082E-1,-1.2501203E-1,1.0740974E0,-1.336732E-1,3.208809E-2,-1.0499773E-1,8.4963E-2,1.883931E-1,-1.262574E-1,6.9207005E-2,1.1395674E-1,-1.2921497E-1],"categories":[],"categories_nodes":[],"categories_segments":[],"categories_sizes":[],"default_left":[0,0,0,0,0,0,0,0,0,0,0,0,0,0,0,0,0,0,0,0,0],"id":12,"left_children":[1,3,5,7,-1,9,11,13,15,17,-1,19,-1,-1,-1,-1,-1,-1,-1,-1,-1],"loss_changes":[6.638864E2,4.67024E2,4.3733173E2,4.530888E2,0E0,8.00199E1,3.7928955E1,2.4133894E2,1.1196399E2,1.2570678E2,0E0,2.0086609E1,0E0,0E0,0E0,0E0,0E0,0E0,0E0,0E0,0E0],"parents":[2147483647,0,0,1,1,2,2,3,3,5,5,6,6,7,7,8,8,9,9,11,11],"right_children":[2,4,6,8,-1,10,12,14,16,18,-1,20,-1,-1,-1,-1,-1,-1,-1,-1,-1],"split_conditions":[1.1695E1,2.7E1,4.4E1,6E0,-1.22029446E-1,1.326E1,1.772E1,1E1,1.1496667E1,7E0,-1.2501203E-1,2.1128E2,-1.336732E-1,3.208809E-2,-1.0499773E-1,8.4963E-2,1.883931E-1,-1.262574E-1,6.9207005E-2,1.1395674E-1,-1.2921497E-1],"split_indices":[3,10,11,1,0,8,6,10,3,1,0,8,0,0,0,0,0,0,0,0,0],"split_type":[0,0,0,0,0,0,0,0,0,0,0,0,0,0,0,0,0,0,0,0,0],"sum_hessian":[2.3859966E3,1.5856014E3,8.003951E2,1.4179557E3,1.6764581E2,6.751682E2,1.2522689E2,5.656084E2,8.523473E2,1.3082025E2,5.4434796E2,1.1915464E2,6.0722513E0,3.702331E2,1.9537529E2,7.299211E2,1.2242624E2,7.135777E1,5.9462475E1,1.1645105E2,2.7035935E0],"tree_param":{"num_deleted":"0","num_feature":"13","num_nodes":"21","size_leaf_vector":"1"}},{"base_weights":[-2.320746E-2,1.0527502E0,-6.2262195E-1,1.0928482E0,-1.1340817E-1,-7.6353604E-1,6.481398E-1,-1.05091535E-1,1.1119251E0,4.3981922E-1,-9.127332E-1,-1.1835368E-1,9.923366E-1,1.17222264E-1,9.161795E-2,-1.2986642E-1,8.4124915E-2,-1.2228822E-1,-6.41488E-2,1.05512E-1,-1.21573105E-1],"categories":[],"categories_nodes":[],"categories_segments":[],"categories_sizes":[],"default_left":[0,0,0,0,0,0,0,0,0,0,0,0,0,0,0,0,0,0,0,0,0],"id":13,"left_children":[1,3,5,7,-1,9,11,-1,13,15,17,-1,19,-1,-1,-1,-1,-1,-1,-1,-1],"loss_changes":[1.4803868E3,7.325226E1,2.6446094E2,3.4170532E1,0E0,2.3872296E2,9.42848E1,0E0,8.3723755E0,1.0375046E2,9.859589E1,0E0,1.8593277E1,0E0,0E0,0E0,0E0,0E0,0E0,0E0,0E0],"parents":[2147483647,0,0,1,1,2,2,3,3,5,5,6,6,8,8,9,9,10,10,12,12],"right_children":[2,4,6,8,-1,10,12,-1,14,16,18,-1,20,-1,-1,-1,-1,-1,-1,-1,-1],"split_conditions":[5.01E0,2.7E1,4.4E1,2E0,-1.1340817E-1,5E0,1.2918E1,-1.05091535E-1,4.984299E0,7.99E0,3.6072738E0,-1.1835368E-1,2.1128E2,1.17222264E-1,9.161795E-2,-1.2986642E-1,8.4124915E-2,-1.2228822E-1,-6.41488E-2,1.05512E-1,-1.21573105E-1],"split_indices":[5,10,11,9,0,10,3,0,4,5,4,0,8,0,0,0,0,0,0,0,0],"split_type":[0,0,0,0,0,0,0,0,0,0,0,0,0,0,0,0,0,0,0,0,0],"sum_hessian":[2.293354E3,8.2024536E2,1.4731086E3,8.0596735E2,1.4278024E1,1.3264216E3,1.4668701E2,6.6317916E0,7.993356E2,1.4609987E2,1.1803218E3,2.2818357E1,1.2386865E2,6.072804E2,1.9205519E2,2.6987835E1,1.1911203E2,5.4903375E2,6.31288E2,1.20951706E2,2.9169457E0],"tree_param":{"num_deleted":"0","num_feature":"13","num_nodes":"21","size_leaf_vector":"1"}},{"base_weights":[2.5861364E-2,1.0246102E0,-5.250012E-1,1.0647563E0,-1.1125288E-1,-1.0844429E0,-2.286047E-1,-1.02940716E-1,1.0835636E0,-1.2389547E-1,1.1934123E-1,1.1986464E0,-5.9233916E-1,1.1532773E-1,8.771305E-2,1.5563118E-1,-1.1758383E-1,-8.791491E-2,9.097781E-2],"categories":[],"categories_nodes":[],"categories_segments":[],"categories_sizes":[],"default_left":[0,0,0,0,0,0,0,0,0,0,0,0,0,0,0,0,0,0,0],"id":14,"left_children":[1,3,5,7,-1,9,11,-1,13,-1,-1,15,17,-1,-1,-1,-1,-1,-1],"loss_changes":[1.2121528E3,6.838165E1,2.3521832E2,3.1413635E1,0E0,1.7447375E2,4.8325888E2,0E0,9.967651E0,0E0,0E0,1.624336E2,3.2021442E2,0E0,0E0,0E0,0E0,0E0,0E0],"parents":[2147483647,0,0,1,1,2,2,3,3,5,5,6,6,8,8,11,11,12,12],"right_children":[2,4,6,8,-1,10,12,-1,14,-1,-1,16,18,-1,-1,-1,-1,-1,-1],"split_conditions":[5.01E0,2.7E1,1.1463333E1,2E0,-1.1125288E-1,1.015E1,1.1695E1,-1.02940716E-1,4.6875997E0,-1.2389547E-1,1.1934123E-1,7E0,4.4E1,1.1532773E-1,8.771305E-2,1.5563118E-1,-1.1758383E-1,-8.791491E-2,9.097781E-2],"split_indices":[5,10,3,9,0,5,3,0,4,0,0,2,11,0,0,0,0,0,0],"split_type":[0,0,0,0,0,0,0,0,0,0,0,0,0,0,0,0,0,0,0],"sum_hessian":[2.2012424E3,7.822015E2,1.4190409E3,7.6827124E2,1.3930194E1,4.9052582E2,9.28515E2,6.36001E0,7.6191125E2,4.5979315E2,3.073267E1,1.881076E2,7.404074E2,5.661368E2,1.9577448E2,1.6378192E2,2.4325678E1,6.220498E2,1.1835763E2],"tree_param":{"num_deleted":"0","num_feature":"13","num_nodes":"19","size_leaf_vector":"1"}},{"base_weights":[-6.3754395E-3,1.0061193E0,-5.3921705E-1,1.0432644E0,-1.08005695E-1,-1.5352431E-1,-1.1097672E0,-9.8689936E-2,1.0606489E0,-8.548433E-1,1.1332704E0,-1.1730714E-1,-2.5035042E-1,1.06521286E-1,-8.5712545E-2,6.2176447E-2,-1.2039062E-1,1.3485876E-1,-1.283774E-1,8.162967E-2,-1.4615013E-1],"categories":[],"categories_nodes":[],"categories_segments":[],"categories_sizes":[],"default_left":[0,0,0,0,0,0,0,0,0,0,0,0,0,0,0,0,0,0,0,0,0],"id":15,"left_children":[1,3,5,7,-1,9,11,-1,13,15,17,-1,19,-1,-1,-1,-1,-1,-1,-1,-1],"loss_changes":[1.0851545E3,5.487085E1,2.8983304E2,2.5114136E1,0E0,7.116239E2,2.861621E1,0E0,6.835205E0,2.637489E2,1.4652292E2,0E0,4.9932114E1,0E0,0E0,0E0,0E0,0E0,0E0,0E0,0E0],"parents":[2147483647,0,0,1,1,2,2,3,3,5,5,6,6,8,8,9,9,10,10,12,12],"right_children":[2,4,6,8,-1,10,12,-1,14,16,18,-1,20,-1,-1,-1,-1,-1,-1,-1,-1],"split_conditions":[5.01E0,2.7E1,1.723E1,2E0,-1.08005695E-1,1.675E1,4.4E1,-9.8689936E-2,1.1085E1,5E0,8E0,-1.1730714E-1,1.6876628E-1,1.06521286E-1,-8.5712545E-2,6.2176447E-2,-1.2039062E-1,1.3485876E-1,-1.283774E-1,8.162967E-2,-1.4615013E-1],"split_indices":[5,10,6,9,0,6,11,0,3,10,2,0,7,0,0,0,0,0,0,0,0],"split_type":[0,0,0,0,0,0,0,0,0,0,0,0,0,0,0,0,0,0,0,0,0],"sum_hessian":[2.0094048E3,6.925491E2,1.3168557E3,6.8092487E2,1.1624223E1,7.8647003E2,5.3038574E2,5.3078065E0,6.7561707E2,5.0925528E2,2.7721475E2,4.936582E2,3.672754E1,6.7445654E2,1.1605322E0,9.721874E1,4.1203653E2,2.5494553E2,2.2269222E1,1.9702118E1,1.702542E1],"tree_param":{"num_deleted":"0","num_feature":"13","num_nodes":"21","size_leaf_vector":"1"}},{"base_weights":[1.3374274E-2,9.7996813E-1,-5.019002E-1,1.0172163E0,-1.0597967E-1,-1.1672903E-1,-1.0904461E0,-9.773015E-2,1.0354933E0,-5.9466386E-1,1.4446478E0,-3.9084417E-1,-1.167701E-1,1.1185183E-1,7.7315226E-2,-1.210104E-1,2.445321E-2,-1.2862742E-1,1.6854276E-1,-1.1615544E-1,1.0614733E-1],"categories":[],"categories_nodes":[],"categories_segments":[],"categories_sizes":[],"default_left":[0,0,0,0,0,0,0,0,0,0,0,0,0,0,0,0,0,0,0,0,0],"id":16,"left_children":[1,3,5,7,-1,9,11,-1,13,15,17,19,-1,-1,-1,-1,-1,-1,-1,-1,-1],"loss_changes":[9.486309E2,5.13963E1,2.8150928E2,2.4740295E1,0E0,5.6207007E2,2.6098755E1,0E0,1.3194458E1,2.9804953E2,1.1825452E2,5.760539E1,0E0,0E0,0E0,0E0,0E0,0E0,0E0,0E0,0E0],"parents":[2147483647,0,0,1,1,2,2,3,3,5,5,6,6,8,8,9,9,10,10,11,11],"right_children":[2,4,6,8,-1,10,12,-1,14,16,18,20,-1,-1,-1,-1,-1,-1,-1,-1,-1],"split_conditions":[5.01E0,2.7E1,1.723E1,2E0,-1.0597967E-1,1.703E1,2.4928474E0,-9.773015E-2,4.984299E0,7.99E0,6E0,2.468551E0,-1.167701E-1,1.1185183E-1,7.7315226E-2,-1.210104E-1,2.445321E-2,-1.2862742E-1,1.6854276E-1,-1.1615544E-1,1.0614733E-1],"split_indices":[5,10,6,9,0,6,4,0,4,5,1,4,0,0,0,0,0,0,0,0,0],"split_type":[0,0,0,0,0,0,0,0,0,0,0,0,0,0,0,0,0,0,0,0,0],"sum_hessian":[1.9026599E3,6.612783E2,1.2413816E3,6.499116E2,1.1366738E1,7.5105524E2,4.903264E2,5.425E0,6.444866E2,5.755113E2,1.7554391E2,4.9363293E1,4.4096307E2,4.870749E2,1.574117E2,3.3176398E2,2.4374733E2,1.3871489E1,1.6167242E2,3.2380135E1,1.6983158E1],"tree_param":{"num_deleted":"0","num_feature":"13","num_nodes":"21","size_leaf_vector":"1"}},{"base_weights":[-2.3632378E-3,9.65282E-1,-5.2535146E-1,1.003878E0,-1.046425E-1,-1.8002959E-1,-1.0738386E0,-9.537272E-2,1.0215361E0,-7.308515E-1,8.8142204E-1,-3.887236E-1,-1.1514276E-1,1.10620074E-1,7.6549955E-2,6.754407E-2,-1.1672276E-1,-1.2579934E-1,1.18614115E-1,-1.135331E-1,1.0323063E-1],"categories":[],"categories_nodes":[],"categories_segments":[],"categories_sizes":[],"default_left":[0,0,0,0,0,0,0,0,0,0,0,0,0,0,0,0,0,0,0,0,0],"id":17,"left_children":[1,3,5,7,-1,9,11,-1,13,15,17,19,-1,-1,-1,-1,-1,-1,-1,-1,-1],"loss_changes":[9.081225E2,4.9934265E1,2.2044E2,2.2345825E1,0E0,4.1928632E2,2.346521E1,0E0,1.244574E1,2.9041138E2,1.6126492E2,5.13255E1,0E0,0E0,0E0,0E0,0E0,0E0,0E0,0E0,0E0],"parents":[2147483647,0,0,1,1,2,2,3,3,5,5,6,6,8,8,9,9,10,10,11,11],"right_children":[2,4,6,8,-1,10,12,-1,14,16,18,20,-1,-1,-1,-1,-1,-1,-1,-1,-1],"split_conditions":[5.01E0,2.7E1,1.723E1,2E0,-1.046425E-1,1.675E1,2.4928474E0,-9.537272E-2,4.984299E0,5E0,2E0,2.468551E0,-1.1514276E-1,1.10620074E-1,7.6549955E-2,6.754407E-2,-1.1672276E-1,-1.2579934E-1,1.18614115E-1,-1.135331E-1,1.0323063E-1],"split_indices":[5,10,6,9,0,6,4,0,4,10,11,4,0,0,0,0,0,0,0,0,0],"split_type":[0,0,0,0,0,0,0,0,0,0,0,0,0,0,0,0,0,0,0,0,0],"sum_hessian":[1.7924685E3,6.285903E2,1.1638783E3,6.172489E2,1.1341353E1,7.150305E2,4.4884775E2,5.044108E0,6.122048E2,4.7095044E2,2.4408008E2,4.6272182E1,4.0257556E2,4.5757605E2,1.5462875E2,1.1139959E2,3.5955084E2,3.0040323E1,2.1403976E2,3.0466284E1,1.5805898E1],"tree_param":{"num_deleted":"0","num_feature":"13","num_nodes":"21","size_leaf_vector":"1"}},{"base_weights":[7.2078854E-3,9.358988E-1,-4.561745E-1,9.726925E-1,-1.0192644E-1,-9.475464E-2,-1.0583104E0,1.0835215E-1,6.591928E-1,-7.847058E-1,9.937556E-1,-3.7450305E-1,-1.1350836E-1,-3.2875124E-1,1.0883396E-1,4.8861563E-2,-1.1478078E-1,1.1836964E-1,-1.2748095E-1,-1.11682676E-1,1.0040256E-1],"categories":[],"categories_nodes":[],"categories_segments":[],"categories_sizes":[],"default_left":[0,0,0,0,0,0,0,0,0,0,0,0,0,0,0,0,0,0,0,0,0],"id":18,"left_children":[1,3,5,7,-1,9,11,-1,13,15,17,19,-1,-1,-1,-1,-1,-1,-1,-1,-1],"loss_changes":[7.138542E2,4.071344E1,2.4073407E2,1.8134277E1,0E0,5.20979E2,2.136148E1,0E0,2.4788486E2,1.9682715E2,1.1748682E2,4.5514996E1,0E0,0E0,0E0,0E0,0E0,0E0,0E0,0E0,0E0],"parents":[2147483647,0,0,1,1,2,2,3,3,5,5,6,6,8,8,9,9,10,10,11,11],"right_children":[2,4,6,8,-1,10,12,-1,14,16,18,20,-1,-1,-1,-1,-1,-1,-1,-1,-1],"split_conditions":[5.01E0,2.7E1,1.723E1,4.984299E0,-1.0192644E-1,1.675E1,2.4928474E0,1.0835215E-1,1.644E1,5E0,8E0,2.468551E0,-1.1350836E-1,-3.2875124E-1,1.0883396E-1,4.8861563E-2,-1.1478078E-1,1.1836964E-1,-1.2748095E-1,-1.11682676E-1,1.0040256E-1],"split_indices":[5,10,6,4,0,6,4,0,6,10,2,4,0,0,0,0,0,0,0,0,0],"split_type":[0,0,0,0,0,0,0,0,0,0,0,0,0,0,0,0,0,0,0,0,0],"sum_hessian":[1.6568262E3,5.511718E2,1.1056543E3,5.4148425E2,9.687561E0,6.91658E2,4.1399634E2,3.9824106E2,1.432432E2,4.2350125E2,2.6815677E2,4.238224E1,3.7161407E2,1.3394873E1,1.2984831E2,9.3892975E1,3.2960828E2,2.478806E2,2.0276155E1,2.7671343E1,1.47108965E1],"tree_param":{"num_deleted":"0","num_feature":"13","num_nodes":"21","size_leaf_vector":"1"}},{"base_weights":[-2.1128265E-2,9.3903E-1,-5.3276503E-1,9.7572875E-1,-1.005949E-1,-2.1775529E-1,-1.0421538E0,-8.870572E-2,9.915967E-1,-6.655531E-1,1.2189234E0,-3.555336E-1,-1.1195042E-1,1.08181775E-1,7.3172316E-2,5.3518962E-2,-9.934475E-2,-1.2986563E-1,1.5146989E-1,-1.09539405E-1,9.942135E-2],"categories":[],"categories_nodes":[],"categories_segments":[],"categories_sizes":[],"default_left":[0,0,0,0,0,0,0,0,0,0,0,0,0,0,0,0,0,0,0,0,0],"id":19,"left_children":[1,3,5,7,-1,9,11,-1,13,15,17,19,-1,-1,-1,-1,-1,-1,-1,-1,-1],"loss_changes":[7.4444336E2,3.858377E1,1.5840274E2,1.6177856E1,0E0,3.945994E2,1.9650085E1,0E0,1.1251556E1,1.8451372E2,1.1053732E2,4.0718914E1,0E0,0E0,0E0,0E0,0E0,0E0,0E0,0E0,0E0],"parents":[2147483647,0,0,1,1,2,2,3,3,5,5,6,6,8,8,9,9,10,10,11,11],"right_children":[2,4,6,8,-1,10,12,-1,14,16,18,20,-1,-1,-1,-1,-1,-1,-1,-1,-1],"split_conditions":[5.01E0,2.7E1,1.723E1,2E0,-1.005949E-1,1.703E1,2.4928474E0,-8.870572E-2,4.6875997E0,5E0,6E0,2.468551E0,-1.1195042E-1,1.08181775E-1,7.3172316E-2,5.3518962E-2,-9.934475E-2,-1.2986563E-1,1.5146989E-1,-1.09539405E-1,9.942135E-2],"split_indices":[5,10,6,9,0,6,4,0,4,10,1,4,0,0,0,0,0,0,0,0,0],"split_type":[0,0,0,0,0,0,0,0,0,0,0,0,0,0,0,0,0,0,0,0,0],"sum_hessian":[1.513381E3,5.258028E2,9.875781E2,5.1655457E2,9.248256E0,6.110981E2,3.7648007E2,3.8993285E0,5.126552E2,4.6629538E2,1.4480269E2,3.8684444E1,3.3779562E2,3.781938E2,1.3446146E2,9.988527E1,3.6641013E2,1.4867017E1,1.2993567E2,2.5109293E1,1.35751505E1],"tree_param":{"num_deleted":"0","num_feature":"13","num_nodes":"21","size_leaf_vector":"1"}},{"base_weights":[2.705566E-2,9.0724796E-1,-4.0897468E-1,9.4255924E-1,-9.84408E-2,-7.5004086E-2,-9.9514014E-1,-8.71333E-2,9.585982E-1,-6.602944E-1,8.720349E-1,-1.9762494E-1,-1.10853575E-1,7.41835E-2,1.0528164E-1,5.240519E-2,-1.1185229E-1,1.0420384E-1,-1.1859486E-1,9.762483E-2,-1.09213725E-1],"categories":[],"categories_nodes":[],"categories_segments":[],"categories_sizes":[],"default_left":[0,0,0,0,0,0,0,0,0,0,0,0,0,0,0,0,0,0,0,0,0],"id":20,"left_children":[1,3,5,7,-1,9,11,-1,13,15,17,19,-1,-1,-1,-1,-1,-1,-1,-1,-1],"loss_changes":[5.5987897E2,3.3207916E1,1.909087E2,1.4651855E1,0E0,3.456636E2,3.1796326E1,0E0,8.842804E0,2.0971252E2,8.458391E1,4.8619583E1,0E0,0E0,0E0,0E0,0E0,0E0,0E0,0E0,0E0],"parents":[2147483647,0,0,1,1,2,2,3,3,5,5,6,6,8,8,9,9,10,10,11,11],"right_children":[2,4,6,8,-1,10,12,-1,14,16,18,20,-1,-1,-1,-1,-1,-1,-1,-1,-1],"split_conditions":[5.01E0,2.7E1,1.723E1,2E0,-9.84408E-2,1.675E1,1.6876628E-1,-8.71333E-2,7E0,5E0,8E0,1.088E1,-1.10853575E-1,7.41835E-2,1.0528164E-1,5.240519E-2,-1.1185229E-1,1.0420384E-1,-1.1859486E-1,9.762483E-2,-1.09213725E-1],"split_indices":[5,10,6,9,0,6,7,0,1,10,2,5,0,0,0,0,0,0,0,0,0],"split_type":[0,0,0,0,0,0,0,0,0,0,0,0,0,0,0,0,0,0,0,0,0],"sum_hessian":[1.456847E3,4.8225754E2,9.745895E2,4.7391278E2,8.344736E0,6.215731E2,3.5301636E2,3.6863415E0,4.7022644E2,3.8434344E2,2.3722969E2,4.4287037E1,3.087293E2,1.451532E2,3.2507327E2,1.0718008E2,2.7716336E2,2.195842E2,1.7645498E1,1.9113247E1,2.517379E1],"tree_param":{"num_deleted":"0","num_feature":"13","num_nodes":"21","size_leaf_vector":"1"}},{"base_weights":[-1.543984E-2,8.8133866E-1,-4.2791957E-1,9.178586E-1,-9.652083E-2,-1.6350453E-1,-1.0891392E-1,1.0545229E0,5.5517274E-1,-9.506227E-1,3.5939524E-1,5.730867E-2,1.0612791E-1,-3.1121483E-1,1.06506884E-1,-1.1569122E-1,1.1011306E-1,-4.976576E-2,9.063761E-2],"categories":[],"categories_nodes":[],"categories_segments":[],"categories_sizes":[],"default_left":[0,0,0,0,0,0,0,0,0,0,0,0,0,0,0,0,0,0,0],"id":21,"left_children":[1,3,5,7,-1,9,-1,11,13,15,17,-1,-1,-1,-1,-1,-1,-1,-1],"loss_changes":[4.863946E2,2.8822601E1,1.5728568E2,1.9575562E1,0E0,2.6562302E2,0E0,3.4909058E-1,2.1542813E2,1.10281006E2,1.8233896E2,0E0,0E0,0E0,0E0,0E0,0E0,0E0,0E0],"parents":[2147483647,0,0,1,1,2,2,3,3,5,5,7,7,8,8,9,9,10,10],"right_children":[2,4,6,8,-1,10,-1,12,14,16,18,-1,-1,-1,-1,-1,-1,-1,-1],"split_conditions":[5.01E0,2.7E1,1.772E1,4.984299E0,-9.652083E-2,1.1463333E1,-1.0891392E-1,8.39E0,1.644E1,1.015E1,2.8267795E-1,5.730867E-2,1.0612791E-1,-3.1121483E-1,1.06506884E-1,-1.1569122E-1,1.1011306E-1,-4.976576E-2,9.063761E-2],"split_indices":[5,10,6,4,0,3,0,6,6,5,7,0,0,0,0,0,0,0,0],"split_type":[0,0,0,0,0,0,0,0,0,0,0,0,0,0,0,0,0,0,0],"sum_hessian":[1.3129054E3,4.1327063E2,8.996347E2,4.057489E2,7.5217443E0,6.435378E2,2.5609692E2,2.9331635E2,1.1243254E2,2.5654462E2,3.8699316E2,5.247022E0,2.8806934E2,1.3101224E1,9.9331314E1,2.3350359E2,2.3041021E1,1.5079922E2,2.3619395E2],"tree_param":{"num_deleted":"0","num_feature":"13","num_nodes":"19","size_leaf_vector":"1"}},{"base_weights":[2.0072075E-2,8.724232E-1,-3.7582564E-1,9.078817E-1,-9.491839E-2,-1.1199169E-1,-1.0789758E-1,1.0405593E0,5.6020534E-1,-9.291328E-1,3.7156934E-1,-6.369395E-2,1.0500717E-1,-2.7218315E-1,1.0456902E-1,-1.1368207E-1,1.0895002E-1,-3.8553983E-2,8.675117E-2],"categories":[],"categories_nodes":[],"categories_segments":[],"categories_sizes":[],"default_left":[0,0,0,0,0,0,0,0,0,0,0,0,0,0,0,0,0,0,0],"id":22,"left_children":[1,3,5,7,-1,9,-1,11,13,15,17,-1,-1,-1,-1,-1,-1,-1,-1],"loss_changes":[4.2287488E2,2.6533722E1,1.5863309E2,1.7424591E1,0E0,2.4666592E2,0E0,5.1588745E0,1.7810294E2,9.851988E1,1.4765147E2,0E0,0E0,0E0,0E0,0E0,0E0,0E0,0E0],"parents":[2147483647,0,0,1,1,2,2,3,3,5,5,7,7,8,8,9,9,10,10],"right_children":[2,4,6,8,-1,10,-1,12,14,16,18,-1,-1,-1,-1,-1,-1,-1,-1],"split_conditions":[5.01E0,2.7E1,1.772E1,4.984299E0,-9.491839E-2,1.1463333E1,-1.0789758E-1,1E0,1.644E1,1.015E1,2.8267795E-1,-6.369395E-2,1.0500717E-1,-2.7218315E-1,1.0456902E-1,-1.1368207E-1,1.0895002E-1,-3.8553983E-2,8.675117E-2],"split_indices":[5,10,6,4,0,3,0,9,6,5,7,0,0,0,0,0,0,0,0],"split_type":[0,0,0,0,0,0,0,0,0,0,0,0,0,0,0,0,0,0,0],"sum_hessian":[1.2511995E3,3.9645178E2,8.547477E2,3.8937402E2,7.077758E0,6.223795E2,2.3236813E2,2.803834E2,1.08990616E2,2.3103899E2,3.9134055E2,1.2090638E0,2.7917435E2,1.3451003E1,9.553961E1,2.0988202E2,2.115696E1,1.5497588E2,2.3636465E2],"tree_param":{"num_deleted":"0","num_feature":"13","num_nodes":"19","size_leaf_vector":"1"}},{"base_weights":[3.1114094E-2,1.7941552E-1,-1.0663041E-1,-2.1642846E-1,8.347454E-1,4.2644253E-1,-4.4707698E-1,-1.0663128E-1,9.1805637E-1,5.3936493E-2,-1.1405851E-1,-5.5861462E-2,6.0716487E-2,-1.12348795E-1,9.641635E-2],"categories":[],"categories_nodes":[],"categories_segments":[],"categories_sizes":[],"default_left":[0,0,0,0,0,0,0,0,0,0,0,0,0,0,0],"id":23,"left_children":[1,3,-1,5,7,9,11,-1,13,-1,-1,-1,-1,-1,-1],"loss_changes":[1.9404361E2,2.7260352E2,0E0,9.738608E1,6.364499E1,3.133287E1,5.7122856E1,0E0,3.6814636E1,0E0,0E0,0E0,0E0,0E0,0E0],"parents":[2147483647,0,0,1,1,3,3,4,4,5,5,6,6,8,8],"right_children":[2,4,-1,6,8,10,12,-1,14,-1,-1,-1,-1,-1,-1],"split_conditions":[2.7E1,7E0,-1.0663041E-1,1.047E1,2.8563938E-1,1.4E1,6.3960457E-1,-1.0663128E-1,4E0,5.3936493E-2,-1.1405851E-1,-5.5861462E-2,6.0716487E-2,-1.12348795E-1,9.641635E-2],"split_indices":[10,1,0,8,7,11,7,0,9,0,0,0,0,0,0],"split_type":[0,0,0,0,0,0,0,0,0,0,0,0,0,0,0],"sum_hessian":[1.1901145E3,1.0491697E3,1.4094478E2,6.54498E2,3.9467172E2,1.725928E2,4.8190515E2,1.6074364E1,3.7859735E2,1.6160324E2,1.0989572E1,4.3622333E2,4.568184E1,7.845489E0,3.7075186E2],"tree_param":{"num_deleted":"0","num_feature":"13","num_nodes":"15","size_leaf_vector":"1"}},{"base_weights":[-5.8484875E-2,6.4830124E-1,-2.7164704E-1,-7.0474094E-1,7.864553E-1,-8.791832E-1,-1.52380075E-2,7.610392E-2,-1.0197564E-1,-9.013238E-2,8.281803E-1,3.3906212E-1,-1.1103764E0,3.438642E-1,-4.8710394E-1,6.6916056E-2,9.9985324E-2,-1.4554541E-1,7.865288E-2,-1.0755201E-1,-1.5547942E-1,-4.4236384E-2,8.69924E-2,5.148953E-2,-8.240806E-2],"categories":[],"categories_nodes":[],"categories_segments":[],"categories_sizes":[],"default_left":[0,0,0,0,0,0,0,0,0,0,0,0,0,0,0,0,0,0,0,0,0,0,0,0,0],"id":24,"left_children":[1,3,5,7,9,11,13,-1,-1,-1,15,17,19,21,23,-1,-1,-1,-1,-1,-1,-1,-1,-1,-1],"loss_changes":[1.6190565E2,4.710517E1,1.2857216E2,1.1672862E1,1.6692368E1,6.937068E1,9.869787E1,0E0,0E0,0E0,5.377472E0,3.313506E1,1.520813E0,1.3719601E2,8.541063E1,0E0,0E0,0E0,0E0,0E0,0E0,0E0,0E0,0E0,0E0],"parents":[2147483647,0,0,1,1,2,2,3,3,4,4,5,5,6,6,10,10,11,11,12,12,13,13,14,14],"right_children":[2,4,6,8,10,12,14,-1,-1,-1,16,18,20,22,24,-1,-1,-1,-1,-1,-1,-1,-1,-1,-1],"split_conditions":[8.5125E0,2.6956806E-1,1E0,5.665E0,2E0,5E0,3E0,7.610392E-2,-1.0197564E-1,-9.013238E-2,8E0,1.588E1,4.777329E-1,6E0,1.6876628E-1,6.6916056E-2,9.9985324E-2,-1.4554541E-1,7.865288E-2,-1.0755201E-1,-1.5547942E-1,-4.4236384E-2,8.69924E-2,5.148953E-2,-8.240806E-2],"split_indices":[3,7,11,3,9,10,11,0,0,0,1,6,7,1,7,0,0,0,0,0,0,0,0,0,0],"split_type":[0,0,0,0,0,0,0,0,0,0,0,0,0,0,0,0,0,0,0,0,0,0,0,0,0],"sum_hessian":[1.0724733E3,2.480309E2,8.244424E2,2.259923E1,2.2543167E2,2.4396422E2,5.804782E2,3.7472484E0,1.885198E1,4.9416156E0,2.2049005E2,3.8839172E1,2.0512505E2,3.2977905E2,2.5069914E2,1.1700591E2,1.0348414E2,7.3021283E0,3.1537043E1,1.9337822E2,1.1746826E1,1.3226305E2,1.9751599E2,6.2959946E1,1.877392E2],"tree_param":{"num_deleted":"0","num_feature":"13","num_nodes":"25","size_leaf_vector":"1"}},{"base_weights":[-2.2519194E-2,8.6065286E-1,-4.4884047E-1,8.911555E-1,-8.9675926E-2,-1.5855101E-1,-1.0217721E0,1.0298499E0,5.6140846E-1,-6.048075E-1,9.9979544E-1,-5.10466E-1,-1.0756338E-1,-5.7913195E-2,1.0392695E-1,-2.3441184E-1,1.02670304E-1,-1.12638496E-1,3.6065595E-3,-1.2727906E-1,1.2581067E-1,-1.0439855E-1,8.8234805E-2],"categories":[],"categories_nodes":[],"categories_segments":[],"categories_sizes":[],"default_left":[0,0,0,0,0,0,0,0,0,0,0,0,0,0,0,0,0,0,0,0,0,0,0],"id":25,"left_children":[1,3,5,7,-1,9,11,13,15,17,19,21,-1,-1,-1,-1,-1,-1,-1,-1,-1,-1,-1],"loss_changes":[3.9597525E2,1.915355E1,1.1779956E2,1.4836884E1,0E0,2.4455472E2,6.0145264E0,4.1796417E0,1.40294E2,1.14126816E2,7.887004E1,1.9213644E1,0E0,0E0,0E0,0E0,0E0,0E0,0E0,0E0,0E0,0E0,0E0],"parents":[2147483647,0,0,1,1,2,2,3,3,5,5,6,6,7,7,8,8,9,9,10,10,11,11],"right_children":[2,4,6,8,-1,10,12,14,16,18,20,22,-1,-1,-1,-1,-1,-1,-1,-1,-1,-1,-1],"split_conditions":[5.01E0,2.7E1,1.723E1,4.6875997E0,-8.9675926E-2,1.703E1,2.4928474E0,1E0,1.644E1,7.99E0,6E0,2.468551E0,-1.0756338E-1,-5.7913195E-2,1.0392695E-1,-2.3441184E-1,1.02670304E-1,-1.12638496E-1,3.6065595E-3,-1.2727906E-1,1.2581067E-1,-1.0439855E-1,8.8234805E-2],"split_indices":[5,10,6,4,0,6,4,9,6,5,1,4,0,0,0,0,0,0,0,0,0,0,0],"split_type":[0,0,0,0,0,0,0,0,0,0,0,0,0,0,0,0,0,0,0,0,0,0,0],"sum_hessian":[1.049659E3,3.4139743E2,7.0826166E2,3.3605756E2,5.3398805E0,4.709303E2,2.3733131E2,2.3506432E2,1.0099323E2,3.4030475E2,1.3062558E2,2.3616667E1,2.1371465E2,1.0161245E0,2.3404819E2,1.3383319E1,8.760992E1,1.8719649E2,1.5310826E2,1.2931211E1,1.1769437E2,1.7256853E1,6.3598137E0],"tree_param":{"num_deleted":"0","num_feature":"13","num_nodes":"23","size_leaf_vector":"1"}},{"base_weights":[3.8601973E-4,8.342283E-1,-3.4162015E-1,8.6819196E-1,-8.833304E-2,-4.827439E-2,-9.606405E-1,1.0181202E0,5.245827E-1,-8.8551235E-1,4.3032154E-1,-1.7602211E-1,-1.0697329E-1,4.7379903E-2,1.02958344E-1,-2.1218078E-1,1.0133379E-1,-1.1155347E-1,1.0412569E-1,-3.703577E-2,8.763036E-2,-1.03083365E-1,9.676144E-2],"categories":[],"categories_nodes":[],"categories_segments":[],"categories_sizes":[],"default_left":[0,0,0,0,0,0,0,0,0,0,0,0,0,0,0,0,0,0,0,0,0,0,0],"id":26,"left_children":[1,3,5,7,-1,9,11,13,15,17,19,21,-1,-1,-1,-1,-1,-1,-1,-1,-1,-1,-1],"loss_changes":[2.7818655E2,1.7318008E1,1.2556707E2,1.382515E1,0E0,1.8886668E2,1.8844894E1,7.164154E-1,1.14337906E2,7.713423E1,1.0744183E2,2.8702318E1,0E0,0E0,0E0,0E0,0E0,0E0,0E0,0E0,0E0,0E0,0E0],"parents":[2147483647,0,0,1,1,2,2,3,3,5,5,6,6,7,7,8,8,9,9,10,10,11,11],"right_children":[2,4,6,8,-1,10,12,14,16,18,20,22,-1,-1,-1,-1,-1,-1,-1,-1,-1,-1,-1],"split_conditions":[5.01E0,2.7E1,1.723E1,4.6875997E0,-8.833304E-2,1.1463333E1,2.4928474E0,8.39E0,1.644E1,1.015E1,2.7986926E-1,2.468551E0,-1.0697329E-1,4.7379903E-2,1.02958344E-1,-2.1218078E-1,1.0133379E-1,-1.1155347E-1,1.0412569E-1,-3.703577E-2,8.763036E-2,-1.03083365E-1,9.676144E-2],"split_indices":[5,10,6,4,0,3,4,6,6,5,7,4,0,0,0,0,0,0,0,0,0,0,0],"split_type":[0,0,0,0,0,0,0,0,0,0,0,0,0,0,0,0,0,0,0,0,0,0,0],"sum_hessian":[9.734805E2,2.8272702E2,6.907535E2,2.777296E2,4.9974194E0,4.6939243E2,2.2136104E2,1.9199344E2,8.5736176E1,1.7041847E2,2.9897397E2,2.733986E1,1.9402118E2,4.8330417E0,1.8716039E2,1.2845001E1,7.2891174E1,1.5261943E2,1.7799042E1,1.0701596E2,1.9195801E2,1.5702017E1,1.1637843E1],"tree_param":{"num_deleted":"0","num_feature":"13","num_nodes":"23","size_leaf_vector":"1"}},{"base_weights":[-1.5971307E-2,8.226917E-1,-3.612937E-1,8.5837823E-1,-8.762749E-2,-8.604456E-2,-9.5106834E-1,1.0087488E0,4.7761595E-1,-6.190237E-1,6.6493446E-1,-1.4209013E-1,-1.0608915E-1,-5.761035E-2,1.02063395E-1,-1.9442496E-1,1.0008689E-1,4.27193E-2,-1.07466064E-1,-1.2601273E-1,8.378762E-2,-1.00996576E-1,9.443802E-2],"categories":[],"categories_nodes":[],"categories_segments":[],"categories_sizes":[],"default_left":[0,0,0,0,0,0,0,0,0,0,0,0,0,0,0,0,0,0,0,0,0,0,0],"id":27,"left_children":[1,3,5,7,-1,9,11,13,15,17,19,21,-1,-1,-1,-1,-1,-1,-1,-1,-1,-1,-1],"loss_changes":[2.608576E2,1.6680481E1,1.0348545E2,1.4279327E1,0E0,1.7495483E2,1.7876373E1,4.0523987E0,9.684906E1,1.2229163E2,6.1481842E1,2.4911324E1,0E0,0E0,0E0,0E0,0E0,0E0,0E0,0E0,0E0,0E0,0E0],"parents":[2147483647,0,0,1,1,2,2,3,3,5,5,6,6,7,7,8,8,9,9,10,10,11,11],"right_children":[2,4,6,8,-1,10,12,14,16,18,20,22,-1,-1,-1,-1,-1,-1,-1,-1,-1,-1,-1],"split_conditions":[5.01E0,2.7E1,1.723E1,4.6875997E0,-8.762749E-2,1.675E1,2.4928474E0,1E0,1.644E1,5E0,4E0,2.468551E0,-1.0608915E-1,-5.761035E-2,1.02063395E-1,-1.9442496E-1,1.0008689E-1,4.27193E-2,-1.07466064E-1,-1.2601273E-1,8.378762E-2,-1.00996576E-1,9.443802E-2],"split_indices":[5,10,6,4,0,6,4,9,6,10,9,4,0,0,0,0,0,0,0,0,0,0,0],"split_type":[0,0,0,0,0,0,0,0,0,0,0,0,0,0,0,0,0,0,0,0,0,0,0],"sum_hessian":[8.986967E2,2.617116E2,6.369851E2,2.5681207E2,4.8995423E0,4.3507877E2,2.0190633E2,1.8292294E2,7.388914E1,2.545776E2,1.8050117E2,2.440778E1,1.7749855E2,1.0082166E0,1.8191473E2,1.2645233E1,6.1243904E1,7.725347E1,1.7732414E2,1.4360797E1,1.6614038E2,1.3608047E1,1.0799732E1],"tree_param":{"num_deleted":"0","num_feature":"13","num_nodes":"23","size_leaf_vector":"1"}},{"base_weights":[1.3548346E-3,8.186518E-1,-3.3320153E-1,9.817995E-1,4.0375093E-1,-1.0282037E0,-6.830587E-2,1.0036882E0,-6.910582E-2,-1.7174132E0,9.602855E-1,-1.0972544E-1,8.9193545E-2,3.9118588E-1,-9.2486787E-1,6.915568E-2,1.03153065E-1,-6.4866185E-2,-1.804104E-1,1.0010109E-1,1.1358319E-2,7.497451E-2,-4.0487774E-2,-1.04206495E-1,8.869757E-3],"categories":[],"categories_nodes":[],"categories_segments":[],"categories_sizes":[],"default_left":[0,0,0,0,0,0,0,0,0,0,0,0,0,0,0,0,0,0,0,0,0,0,0,0,0],"id":28,"left_children":[1,3,5,7,9,11,13,15,-1,17,19,-1,-1,21,23,-1,-1,-1,-1,-1,-1,-1,-1,-1,-1],"loss_changes":[2.3481905E2,1.6487823E1,1.121135E2,7.2236633E0,8.676141E1,2.3264877E1,1.7443011E2,8.1999207E-1,0E0,2.513466E-1,1.8778191E0,0E0,0E0,8.266728E1,1.8470123E1,0E0,0E0,0E0,0E0,0E0,0E0,0E0,0E0,0E0,0E0],"parents":[2147483647,0,0,1,1,2,2,3,3,4,4,5,5,6,6,7,7,9,9,10,10,13,13,14,14],"right_children":[2,4,6,8,10,12,14,16,-1,18,20,-1,-1,22,24,-1,-1,-1,-1,-1,-1,-1,-1,-1,-1],"split_conditions":[5.01E0,4.6875997E0,1.1463333E1,2.7E1,1.644E1,1.015E1,1.723E1,4E0,-6.910582E-2,2E0,8E0,-1.0972544E-1,8.9193545E-2,8.03E0,4.4E1,6.915568E-2,1.03153065E-1,-6.4866185E-2,-1.804104E-1,1.0010109E-1,1.1358319E-2,7.497451E-2,-4.0487774E-2,-1.04206495E-1,8.869757E-3],"split_indices":[5,4,3,10,6,5,6,2,0,9,9,0,0,5,11,0,0,0,0,0,0,0,0,0,0],"split_type":[0,0,0,0,0,0,0,0,0,0,0,0,0,0,0,0,0,0,0,0,0,0,0,0,0],"sum_hessian":[8.5678687E2,2.4843388E2,6.0835297E2,1.7733551E2,7.1098366E1,1.6708731E2,4.4126566E2,1.7543996E2,1.8955528E0,1.4343593E1,5.6754772E1,1.617009E2,5.3864226E0,2.875542E2,1.5371147E2,1.6483826E1,1.5895613E2,1.7126001E0,1.2630992E1,5.3976322E1,2.7784507E0,1.9829659E2,8.9257614E1,1.3775496E2,1.59565115E1],"tree_param":{"num_deleted":"0","num_feature":"13","num_nodes":"25","size_leaf_vector":"1"}},{"base_weights":[2.0471936E-2,7.8562725E-1,-2.485357E-1,9.654703E-1,3.608562E-1,-9.516706E-1,1.9087255E-3,9.9170464E-1,-6.894971E-2,-1.6727675E0,9.433082E-1,-1.0851156E-1,9.655003E-2,3.4945366E-1,-1.03762366E-1,-5.794233E-2,1.0067526E-1,-6.1258495E-2,-1.745505E-1,5.322362E-2,1.0157011E-1,-2.3607066E-2,7.154935E-2],"categories":[],"categories_nodes":[],"categories_segments":[],"categories_sizes":[],"default_left":[0,0,0,0,0,0,0,0,0,0,0,0,0,0,0,0,0,0,0,0,0,0,0],"id":29,"left_children":[1,3,5,7,9,11,13,15,-1,17,19,-1,-1,21,-1,-1,-1,-1,-1,-1,-1,-1,-1],"loss_changes":[1.6690665E2,1.5764374E1,1.0566213E2,7.091522E0,7.778293E1,4.1364395E1,1.6056586E2,4.0278625E0,0E0,6.3129425E-2,9.667206E-1,0E0,0E0,7.155432E1,0E0,0E0,0E0,0E0,0E0,0E0,0E0,0E0,0E0],"parents":[2147483647,0,0,1,1,2,2,3,3,4,4,5,5,6,6,7,7,9,9,10,10,13,13],"right_children":[2,4,6,8,10,12,14,16,-1,18,20,-1,-1,22,-1,-1,-1,-1,-1,-1,-1,-1,-1],"split_conditions":[5.01E0,4.6875997E0,1.1463333E1,2.7E1,1.644E1,1.015E1,1.772E1,1E0,-6.894971E-2,2E0,1.89E1,-1.0851156E-1,9.655003E-2,2.8267795E-1,-1.03762366E-1,-5.794233E-2,1.0067526E-1,-6.1258495E-2,-1.745505E-1,5.322362E-2,1.0157011E-1,-2.3607066E-2,7.154935E-2],"split_indices":[5,4,3,10,6,5,6,9,0,9,6,0,0,7,0,0,0,0,0,0,0,0,0],"split_type":[0,0,0,0,0,0,0,0,0,0,0,0,0,0,0,0,0,0,0,0,0,0,0],"sum_hessian":[8.0893677E2,2.0992198E2,5.990148E2,1.4658618E2,6.33358E1,1.5658759E2,4.424272E2,1.446933E2,1.8928888E0,1.3684522E1,4.9651276E1,1.4680331E2,9.784264E0,3.320705E2,1.1035668E2,1.0168861E0,1.436764E2,1.4835114E0,1.220101E1,8.685281E0,4.0965996E1,1.2787472E2,2.0419579E2],"tree_param":{"num_deleted":"0","num_feature":"13","num_nodes":"23","size_leaf_vector":"1"}},{"base_weights":[5.2275474E-4,7.79106E-1,-2.898964E-1,9.5913756E-1,3.604142E-1,-4.173681E-2,-9.169851E-1,9.7610515E-1,-5.698645E-2,-1.5586911E-1,9.530095E-1,-5.8437985E-1,5.820929E-1,-6.795181E-2,-1.04922794E-1,6.739756E-2,1.0106798E-1,9.953134E-2,-5.3111125E-2,1.1092275E-1,-8.094251E-2,7.252918E-2,-1.3864851E-1,-9.8290354E-2,9.3393825E-2],"categories":[],"categories_nodes":[],"categories_segments":[],"categories_sizes":[],"default_left":[0,0,0,0,0,0,0,0,0,0,0,0,0,0,0,0,0,0,0,0,0,0,0,0,0],"id":30,"left_children":[1,3,5,7,9,11,13,15,-1,-1,17,19,21,23,-1,-1,-1,-1,-1,-1,-1,-1,-1,-1,-1],"loss_changes":[1.7162083E2,1.5197098E1,8.598723E1,4.2815857E0,7.381967E1,1.3476898E2,1.7521362E1,8.062134E-1,0E0,0E0,3.6187592E0,8.2032326E1,5.3223602E1,2.1254951E1,0E0,0E0,0E0,0E0,0E0,0E0,0E0,0E0,0E0,0E0,0E0],"parents":[2147483647,0,0,1,1,2,2,3,3,4,4,5,5,6,6,7,7,10,10,11,11,12,12,13,13],"right_children":[2,4,6,8,10,12,14,16,-1,-1,18,20,22,24,-1,-1,-1,-1,-1,-1,-1,-1,-1,-1,-1],"split_conditions":[5.01E0,4.6875997E0,1.723E1,9E0,1.644E1,1.675E1,2.4928474E0,4E0,-5.698645E-2,-1.5586911E-1,1.2E1,1E0,4.352935E0,2.468551E0,-1.04922794E-1,6.739756E-2,1.0106798E-1,9.953134E-2,-5.3111125E-2,1.1092275E-1,-8.094251E-2,7.252918E-2,-1.3864851E-1,-9.8290354E-2,9.3393825E-2],"split_indices":[5,4,6,1,6,6,4,2,0,0,2,0,4,4,0,0,0,0,0,0,0,0,0,0,0],"split_type":[0,0,0,0,0,0,0,0,0,0,0,0,0,0,0,0,0,0,0,0,0,0,0,0,0],"sum_hessian":[7.5699756E2,2.051987E2,5.517988E2,1.4259435E2,6.2604347E1,3.9611118E2,1.5568765E2,1.4138696E2,1.2073865E0,1.4385849E1,4.82185E1,2.1187411E2,1.8423708E2,2.118545E1,1.3450221E2,1.6622805E1,1.2476415E2,4.7202385E1,1.016115E0,2.43906E1,1.874835E2,1.7233276E2,1.1904317E1,1.1083062E1,1.0102386E1],"tree_param":{"num_deleted":"0","num_feature":"13","num_nodes":"25","size_leaf_vector":"1"}},{"base_weights":[-2.4575805E-3,7.7668184E-1,-2.69298E-1,9.6379966E-1,3.1160668E-1,-7.878767E-2,-1.0287469E-1,9.934619E-1,-6.865998E-2,-1.471458E-1,9.1803026E-1,-8.659585E-1,2.4079518E-1,-6.124273E-2,1.0127383E-1,9.735413E-2,-8.4014656E-4,-1.0789093E-1,9.739589E-2,1.17671326E-1,1.6596295E-4],"categories":[],"categories_nodes":[],"categories_segments":[],"categories_sizes":[],"default_left":[0,0,0,0,0,0,0,0,0,0,0,0,0,0,0,0,0,0,0,0,0],"id":31,"left_children":[1,3,5,7,9,11,-1,13,-1,-1,15,17,19,-1,-1,-1,-1,-1,-1,-1,-1],"loss_changes":[1.4863928E2,1.55718E1,7.696851E1,7.025772E0,5.95309E1,1.0758334E2,0E0,4.573349E0,0E0,0E0,2.104683E0,4.9426384E1,6.811699E1,0E0,0E0,0E0,0E0,0E0,0E0,0E0,0E0],"parents":[2147483647,0,0,1,1,2,2,3,3,4,4,5,5,7,7,10,10,11,11,12,12],"right_children":[2,4,6,8,10,12,-1,14,-1,-1,16,18,20,-1,-1,-1,-1,-1,-1,-1,-1],"split_conditions":[5.01E0,4.6875997E0,1.772E1,2.7E1,1.644E1,1.1463333E1,-1.0287469E-1,1E0,-6.865998E-2,-1.471458E-1,8E0,1.015E1,1.153E1,-6.124273E-2,1.0127383E-1,9.735413E-2,-8.4014656E-4,-1.0789093E-1,9.739589E-2,1.17671326E-1,1.6596295E-4],"split_indices":[5,4,6,10,6,3,0,9,0,0,9,5,3,0,0,0,0,0,0,0,0],"split_type":[0,0,0,0,0,0,0,0,0,0,0,0,0,0,0,0,0,0,0,0,0],"sum_hessian":[7.1292944E2,1.8138835E2,5.3154114E2,1.2858232E2,5.280603E1,4.2582516E2,1.0571595E2,1.26703156E2,1.8791611E0,1.3039524E1,3.9766506E1,1.2246632E2,3.0335886E2,1.1378617E0,1.255653E2,3.747046E1,2.296048E0,1.1013318E2,1.2333131E1,6.093876E1,2.4242009E2],"tree_param":{"num_deleted":"0","num_feature":"13","num_nodes":"21","size_leaf_vector":"1"}},{"base_weights":[1.8298581E-2,7.7580196E-1,-2.4655549E-1,8.137684E-1,-8.195071E-2,-5.9178315E-2,-1.0244834E-1,4.8508626E-1,9.722894E-1,-8.564162E-1,2.3844267E-1,6.2146146E-2,-1.0631454E-1,5.7087597E-2,1.01153575E-1,9.613681E-2,-1.0702846E-1,-3.4433965E-2,6.036687E-2],"categories":[],"categories_nodes":[],"categories_segments":[],"categories_sizes":[],"default_left":[0,0,0,0,0,0,0,0,0,0,0,0,0,0,0,0,0,0,0],"id":32,"left_children":[1,3,5,7,-1,9,-1,11,13,15,17,-1,-1,-1,-1,-1,-1,-1,-1],"loss_changes":[1.3795363E2,1.1455757E1,7.421126E1,8.619751E0,0E0,9.788647E1,0E0,1.3069209E1,1.2613525E0,4.462052E1,6.4180435E1,0E0,0E0,0E0,0E0,0E0,0E0,0E0,0E0],"parents":[2147483647,0,0,1,1,2,2,3,3,5,5,7,7,8,8,9,9,10,10],"right_children":[2,4,6,8,-1,10,-1,12,14,16,18,-1,-1,-1,-1,-1,-1,-1,-1],"split_conditions":[5.01E0,2.7E1,1.772E1,7E0,-8.195071E-2,1.1463333E1,-1.0244834E-1,1.4E1,5E0,1E0,2.8267795E-1,6.2146146E-2,-1.0631454E-1,5.7087597E-2,1.01153575E-1,9.613681E-2,-1.0702846E-1,-3.4433965E-2,6.036687E-2],"split_indices":[5,10,6,1,0,3,0,10,9,0,7,0,0,0,0,0,0,0,0],"split_type":[0,0,0,0,0,0,0,0,0,0,0,0,0,0,0,0,0,0,0],"sum_hessian":[6.856561E2,1.7712775E2,5.0852838E2,1.7348883E2,3.6389236E0,4.1068417E2,9.7844215E1,5.776899E1,1.1571983E2,1.1112795E2,2.995562E2,5.3642517E1,4.126474E0,1.1690889E1,1.04028946E2,1.1330309E1,9.9797646E1,1.154279E2,1.8412831E2],"tree_param":{"num_deleted":"0","num_feature":"13","num_nodes":"19","size_leaf_vector":"1"}},{"base_weights":[-1.47119835E-2,7.2714216E-1,-2.5066885E-1,9.367324E-1,2.3231502E-1,-7.36677E-2,-1.0199962E-1,9.6439165E-1,-6.2099982E-2,-1.4547095E-1,8.804579E-1,-5.8873004E-1,3.5954976E-1,-5.824092E-2,9.852099E-2,9.386568E-2,-5.2645113E-2,3.2333907E-2,-1.05556406E-1,-1.107345E-1,5.7115078E-2],"categories":[],"categories_nodes":[],"categories_segments":[],"categories_sizes":[],"default_left":[0,0,0,0,0,0,0,0,0,0,0,0,0,0,0,0,0,0,0,0,0],"id":33,"left_children":[1,3,5,7,9,11,-1,13,-1,-1,15,17,19,-1,-1,-1,-1,-1,-1,-1,-1],"loss_changes":[1.10421074E2,1.5570023E1,6.508913E1,5.1920166E0,5.2260036E1,8.72597E1,0E0,3.9593582E0,0E0,0E0,3.3031044E0,7.638722E1,6.659598E1,0E0,0E0,0E0,0E0,0E0,0E0,0E0,0E0],"parents":[2147483647,0,0,1,1,2,2,3,3,4,4,5,5,7,7,10,10,11,11,12,12],"right_children":[2,4,6,8,10,12,-1,14,-1,-1,16,18,20,-1,-1,-1,-1,-1,-1,-1,-1],"split_conditions":[5.01E0,4.6875997E0,1.772E1,2.7E1,1.644E1,1.675E1,-1.0199962E-1,1E0,-6.2099982E-2,-1.4547095E-1,1.1E1,5E0,1E0,-5.824092E-2,9.852099E-2,9.386568E-2,-5.2645113E-2,3.2333907E-2,-1.05556406E-1,-1.107345E-1,5.7115078E-2],"split_indices":[5,4,6,10,6,6,0,9,0,0,1,10,11,0,0,0,0,0,0,0,0],"split_type":[0,0,0,0,0,0,0,0,0,0,0,0,0,0,0,0,0,0,0,0,0],"sum_hessian":[6.28772E2,1.5122745E2,4.775445E2,1.0560436E2,4.5623096E1,3.8911545E2,8.8429054E1,1.0413621E2,1.468152E0,1.2317626E1,3.330547E1,1.7760168E2,2.1151376E2,1.0247017E0,1.031115E2,3.230207E1,1.0033991E0,6.0231937E1,1.1736974E2,2.6131002E1,1.8538275E2],"tree_param":{"num_deleted":"0","num_feature":"13","num_nodes":"21","size_leaf_vector":"1"}},{"base_weights":[1.4750822E-2,7.4954873E-1,-2.3094174E-1,9.461661E-1,3.5970324E-1,-6.007054E-2,-1.01582445E-1,6.5452796E-1,9.7888604E-2,-1.3929628E-1,9.048216E-1,-8.813845E-1,2.5486484E-1,7.98394E-2,-2.8447625E-3,1.7468458E-2,9.4817534E-2,9.431527E-2,-1.0864269E-1,4.1449938E-2,-1.2166456E-1],"categories":[],"categories_nodes":[],"categories_segments":[],"categories_sizes":[],"default_left":[0,0,0,0,0,0,0,0,0,0,0,0,0,0,0,0,0,0,0,0,0],"id":34,"left_children":[1,3,5,7,9,11,-1,13,-1,-1,15,17,19,-1,-1,-1,-1,-1,-1,-1,-1],"loss_changes":[1.1035573E2,1.1400108E1,6.1382572E1,3.250122E-1,5.1863358E1,9.781738E1,0E0,1.3223557E0,0E0,0E0,1.13237E0,4.0231483E1,6.47503E1,0E0,0E0,0E0,0E0,0E0,0E0,0E0,0E0],"parents":[2147483647,0,0,1,1,2,2,3,3,4,4,5,5,7,7,10,10,11,11,12,12],"right_children":[2,4,6,8,10,12,-1,14,-1,-1,16,18,20,-1,-1,-1,-1,-1,-1,-1,-1],"split_conditions":[5.01E0,4.6875997E0,1.772E1,4E0,1.644E1,1.604E1,-1.01582445E-1,1.6861E2,9.7888604E-2,-1.3929628E-1,4.984299E0,1E0,4.352935E0,7.98394E-2,-2.8447625E-3,1.7468458E-2,9.4817534E-2,9.431527E-2,-1.0864269E-1,4.1449938E-2,-1.2166456E-1],"split_indices":[5,4,6,2,6,6,0,8,0,0,4,0,4,0,0,0,0,0,0,0,0],"split_type":[0,0,0,0,0,0,0,0,0,0,0,0,0,0,0,0,0,0,0,0,0],"sum_hessian":[6.0931384E2,1.5216876E2,4.5714508E2,1.0020411E2,5.1964645E1,3.7630002E2,8.0845055E1,1.2226983E1,8.797713E1,1.1958928E1,4.000572E1,1.0380094E2,2.7249908E2,9.959964E0,2.267019E0,2.5241866E0,3.7481533E1,1.0123026E1,9.367792E1,2.4647856E2,2.6020527E1],"tree_param":{"num_deleted":"0","num_feature":"13","num_nodes":"21","size_leaf_vector":"1"}},{"base_weights":[3.3439282E-2,1.6279969E-1,-9.582679E-1,-7.8642406E-2,7.4574834E-1,-1.0259769E-1,-2.6523525E-1,3.785958E-2,-1.0191256E0,-9.973256E-2,8.115169E-1,-8.6181335E-2,7.136473E-2,-1.3915921E-2,7.778641E-2,6.590787E-2,-1.1131974E-1,-1.1493231E-1,8.693914E-2],"categories":[],"categories_nodes":[],"categories_segments":[],"categories_sizes":[],"default_left":[0,0,0,0,0,0,0,0,0,0,0,0,0,0,0,0,0,0,0],"id":35,"left_children":[1,3,5,7,9,-1,11,13,15,-1,17,-1,-1,-1,-1,-1,-1,-1,-1],"loss_changes":[7.527638E1,7.308574E1,2.9053001E0,4.0337345E1,1.8240524E1,0E0,4.922122E0,4.3103535E1,7.139282E0,0E0,1.768969E1,0E0,0E0,0E0,0E0,0E0,0E0,0E0,0E0],"parents":[2147483647,0,0,1,1,2,2,3,3,4,4,6,6,7,7,8,8,10,10],"right_children":[2,4,6,8,10,-1,12,14,16,-1,18,-1,-1,-1,-1,-1,-1,-1,-1],"split_conditions":[2.4E1,7E0,4.4038567E-1,6E0,2.8563938E-1,-1.0259769E-1,9E0,1.9E1,5.665E0,-9.973256E-2,1.1E1,-8.6181335E-2,7.136473E-2,-1.3915921E-2,7.778641E-2,6.590787E-2,-1.1131974E-1,-1.1493231E-1,8.693914E-2],"split_indices":[10,1,7,2,7,0,9,10,3,0,10,0,0,0,0,0,0,0,0],"split_type":[0,0,0,0,0,0,0,0,0,0,0,0,0,0,0,0,0,0,0],"sum_hessian":[5.845621E2,5.1784863E2,6.671344E1,3.667963E2,1.5105232E2,6.0338028E1,6.3754106E0,3.272216E2,3.95747E1,4.9771757E0,1.4607515E2,4.035548E0,2.339862E0,2.6471115E2,6.251043E1,1.781809E0,3.7792892E1,3.6471622E0,1.42428E2],"tree_param":{"num_deleted":"0","num_feature":"13","num_nodes":"19","size_leaf_vector":"1"}},{"base_weights":[1.0433218E-3,7.440227E-1,-2.3916E-1,9.155905E-1,4.043075E-1,-8.362987E-2,-1.0106683E-1,1.3682717E-2,9.368981E-1,-1.3088681E-1,9.211834E-1,-8.3231306E-1,1.6563466E-1,1.0028495E-1,7.249936E-2,2.064824E-2,9.654995E-2,-1.0566541E-1,9.336003E-2,1.1468989E-1,-1.190582E-2],"categories":[],"categories_nodes":[],"categories_segments":[],"categories_sizes":[],"default_left":[0,0,0,0,0,0,0,0,0,0,0,0,0,0,0,0,0,0,0,0,0],"id":36,"left_children":[1,3,5,7,9,11,-1,-1,13,-1,15,17,19,-1,-1,-1,-1,-1,-1,-1,-1],"loss_changes":[9.914216E1,7.5401917E0,5.0289146E1,1.3550491E0,4.3119644E1,6.5541664E1,0E0,0E0,4.8651123E-1,0E0,9.7094154E-1,3.5731945E1,7.382047E1,0E0,0E0,0E0,0E0,0E0,0E0,0E0,0E0],"parents":[2147483647,0,0,1,1,2,2,3,3,4,4,5,5,8,8,10,10,11,11,12,12],"right_children":[2,4,6,8,10,12,-1,-1,14,-1,16,18,20,-1,-1,-1,-1,-1,-1,-1,-1],"split_conditions":[5.01E0,4.6875997E0,1.772E1,8.39E0,1.644E1,1.1463333E1,-1.0106683E-1,1.3682717E-2,1.316E1,-1.3088681E-1,4.984299E0,1.015E1,1.153E1,1.0028495E-1,7.249936E-2,2.064824E-2,9.654995E-2,-1.0566541E-1,9.336003E-2,1.1468989E-1,-1.190582E-2],"split_indices":[5,4,6,6,6,3,0,0,6,0,4,5,3,0,0,0,0,0,0,0,0],"split_type":[0,0,0,0,0,0,0,0,0,0,0,0,0,0,0,0,0,0,0,0,0],"sum_hessian":[5.535266E2,1.3472075E2,4.1880588E2,8.838708E1,4.6333675E1,3.4946484E2,6.934103E1,2.551584E0,8.5835495E1,1.0383962E1,3.5949715E1,8.670408E1,2.6276077E2,6.2615135E1,2.3220354E1,2.4293883E0,3.3520325E1,7.728718E1,9.416898E0,5.840949E1,2.0435127E2],"tree_param":{"num_deleted":"0","num_feature":"13","num_nodes":"21","size_leaf_vector":"1"}},{"base_weights":[8.894509E-3,7.2128326E-1,-2.0680553E-1,8.2896405E-1,1.7959821E-1,1.0383528E-1,-6.3759243E-1,6.44731E-1,9.811076E-2,-7.459839E-1,8.406445E-1,3.9026928E-1,-5.6484884E-1,-8.9537E-1,6.333494E-1,7.391051E-2,-8.0195285E-2,-1.3966872E-1,7.3405795E-2,9.2540964E-2,1.6778901E-2,-3.0764371E-2,1.1528983E-1,1.3061537E-2,-1.1817721E-1,-1.1030551E-1,-1.8542496E-2,7.941326E-2,-7.789635E-2],"categories":[],"categories_nodes":[],"categories_segments":[],"categories_sizes":[],"default_left":[0,0,0,0,0,0,0,0,0,0,0,0,0,0,0,0,0,0,0,0,0,0,0,0,0,0,0,0,0],"id":37,"left_children":[1,3,5,7,9,11,13,15,-1,17,19,21,23,25,27,-1,-1,-1,-1,-1,-1,-1,-1,-1,-1,-1,-1,-1,-1],"loss_changes":[8.067848E1,6.968605E0,5.400155E1,2.2128143E0,1.3788647E1,4.5238182E1,5.5936897E1,7.259548E0,0E0,1.0166758E1,5.872555E-1,8.82518E1,3.057174E1,2.0573723E1,7.222892E0,0E0,0E0,0E0,0E0,0E0,0E0,0E0,0E0,0E0,0E0,0E0,0E0,0E0,0E0],"parents":[2147483647,0,0,1,1,2,2,3,3,4,4,5,5,6,6,7,7,9,9,10,10,11,11,12,12,13,13,14,14],"right_children":[2,4,6,8,10,12,14,16,-1,18,20,22,24,26,28,-1,-1,-1,-1,-1,-1,-1,-1,-1,-1,-1,-1,-1,-1],"split_conditions":[5.01E0,2.597E2,4.816E1,3.28E0,8E0,3.0100483E-1,4.4E1,1.0345E1,9.811076E-2,1.539E1,9E0,2.8267795E-1,5.46E0,5.1688E2,2.1128E2,7.391051E-2,-8.0195285E-2,-1.3966872E-1,7.3405795E-2,9.2540964E-2,1.6778901E-2,-3.0764371E-2,1.1528983E-1,1.3061537E-2,-1.1817721E-1,-1.1030551E-1,-1.8542496E-2,7.941326E-2,-7.789635E-2],"split_indices":[5,8,8,5,2,7,11,3,0,6,1,7,5,8,8,0,0,0,0,0,0,0,0,0,0,0,0,0,0],"split_type":[0,0,0,0,0,0,0,0,0,0,0,0,0,0,0,0,0,0,0,0,0,0,0,0,0,0,0,0,0],"sum_hessian":[5.230669E2,1.2102287E2,4.0204404E2,1.005119E2,2.0510965E1,2.3403801E2,1.6800604E2,4.7830635E1,5.268127E1,8.49207E0,1.2018896E1,1.6414296E2,6.989505E1,1.39922E2,2.808404E1,4.536065E1,2.469988E0,5.9378166E0,2.5542536E0,1.0340829E1,1.6780666E0,8.601955E1,7.8123405E1,3.3226612E1,3.6668438E1,1.0782538E2,3.209662E1,2.5606594E1,2.477446E0],"tree_param":{"num_deleted":"0","num_feature":"13","num_nodes":"29","size_leaf_vector":"1"}},{"base_weights":[2.9193033E-2,6.691239E-1,-1.4152624E-1,8.7750614E-1,2.8828168E-1,8.1604635E-3,-1.0045462E-1,-5.8021635E-2,9.083755E-1,-1.2718724E-1,8.615651E-1,-8.023599E-1,2.3566465E-1,9.954164E-2,6.38344E-2,-2.4490511E-2,9.24735E-2,-1.0458578E-1,9.2357405E-2,8.793097E-2,-4.089892E-3],"categories":[],"categories_nodes":[],"categories_segments":[],"categories_sizes":[],"default_left":[0,0,0,0,0,0,0,0,0,0,0,0,0,0,0,0,0,0,0,0,0],"id":38,"left_children":[1,3,5,7,9,11,-1,-1,13,-1,15,17,19,-1,-1,-1,-1,-1,-1,-1,-1],"loss_changes":[5.5853745E1,8.290997E0,5.216274E1,3.6363068E0,3.6481983E1,6.381425E1,0E0,0E0,9.640846E-1,0E0,2.290392E0,3.2843014E1,4.8132904E1,0E0,0E0,0E0,0E0,0E0,0E0,0E0,0E0],"parents":[2147483647,0,0,1,1,2,2,3,3,4,4,5,5,8,8,10,10,11,11,12,12],"right_children":[2,4,6,8,10,12,-1,-1,14,-1,16,18,20,-1,-1,-1,-1,-1,-1,-1,-1],"split_conditions":[5.01E0,4.6875997E0,1.772E1,1E0,1.644E1,1.1463333E1,-1.0045462E-1,-5.8021635E-2,1.316E1,-1.2718724E-1,4E0,1.015E1,1.1695E1,9.954164E-2,6.38344E-2,-2.4490511E-2,9.24735E-2,-1.0458578E-1,9.2357405E-2,8.793097E-2,-4.089892E-3],"split_indices":[5,4,6,9,6,3,0,0,6,0,2,5,3,0,0,0,0,0,0,0,0],"split_type":[0,0,0,0,0,0,0,0,0,0,0,0,0,0,0,0,0,0,0,0,0],"sum_hessian":[5.0938712E2,1.0665981E2,4.027273E2,6.8096115E1,3.8563698E1,3.440449E2,5.868241E1,1.0430899E0,6.7053024E1,1.0035139E1,2.852856E1,7.485064E1,2.6919424E2,4.867653E1,1.8376495E1,1.3853935E0,2.7143166E1,6.594152E1,8.909116E0,8.0249825E1,1.8894443E2],"tree_param":{"num_deleted":"0","num_feature":"13","num_nodes":"21","size_leaf_vector":"1"}},{"base_weights":[-4.3489733E-3,6.860787E-1,-2.0094997E-1,8.800961E-1,2.8102002E-1,-6.880088E-2,-1.0784531E-1,9.099509E-1,-5.376287E-2,-8.749501E-1,7.147261E-1,-2.5209332E-1,7.7230746E-1,4.3983493E-2,9.7517125E-2,-1.15144424E-1,5.7313412E-2,-6.392475E-2,8.0790095E-2,-7.911197E-2,1.949051E-2,8.906668E-2,-8.154125E-2],"categories":[],"categories_nodes":[],"categories_segments":[],"categories_sizes":[],"default_left":[0,0,0,0,0,0,0,0,0,0,0,0,0,0,0,0,0,0,0,0,0,0,0],"id":39,"left_children":[1,3,5,7,9,11,-1,13,-1,15,17,19,21,-1,-1,-1,-1,-1,-1,-1,-1,-1,-1],"loss_changes":[6.3859653E1,7.947418E0,4.2387337E1,3.4534912E0,1.8292671E1,4.9422607E1,0E0,1.6855316E0,0E0,4.689367E0,3.8186579E0,6.350615E1,1.150909E1,0E0,0E0,0E0,0E0,0E0,0E0,0E0,0E0,0E0,0E0],"parents":[2147483647,0,0,1,1,2,2,3,3,4,4,5,5,7,7,9,9,10,10,11,11,12,12],"right_children":[2,4,6,8,10,12,-1,14,-1,16,18,20,22,-1,-1,-1,-1,-1,-1,-1,-1,-1,-1],"split_conditions":[5.01E0,4.6875997E0,8E0,9E0,5.8616495E0,7E0,-1.0784531E-1,4E0,-5.376287E-2,3.28E0,6.3960457E-1,2E0,6.16E0,4.3983493E-2,9.7517125E-2,-1.15144424E-1,5.7313412E-2,-6.392475E-2,8.0790095E-2,-7.911197E-2,1.949051E-2,8.906668E-2,-8.154125E-2],"split_indices":[5,4,2,1,4,1,0,2,0,5,7,11,5,0,0,0,0,0,0,0,0,0,0],"split_type":[0,0,0,0,0,0,0,0,0,0,0,0,0,0,0,0,0,0,0,0,0,0,0],"sum_hessian":[4.6844424E2,1.0327414E2,3.651701E2,6.903473E1,3.423941E1,3.183118E2,4.685831E1,6.796174E1,1.072994E0,9.063856E0,2.5175554E1,2.6193237E2,5.6379433E1,9.223255E0,5.873848E1,7.782695E0,1.2811612E0,1.243587E0,2.3931967E1,1.18393814E2,1.4353856E2,5.2876675E1,3.5027564E0],"tree_param":{"num_deleted":"0","num_feature":"13","num_nodes":"23","size_leaf_vector":"1"}},{"base_weights":[-1.972345E-2,6.83166E-1,-2.1577132E-1,8.6471736E-1,3.0431134E-1,-1.8949741E-2,-9.106268E-1,3.3789572E-1,9.3116885E-1,-1.15011714E-1,8.326353E-1,-8.4107643E-1,2.0983332E-1,-1.4500652E-1,-1.0322314E-1,8.36213E-2,-3.9341085E-2,5.888907E-2,9.8540835E-2,9.2206635E-2,-3.8642563E-2,8.597513E-2,-1.0342636E-1,1.0764865E-1,-5.6987028E-3,8.221921E-2,-8.936886E-2],"categories":[],"categories_nodes":[],"categories_segments":[],"categories_sizes":[],"default_left":[0,0,0,0,0,0,0,0,0,0,0,0,0,0,0,0,0,0,0,0,0,0,0,0,0,0,0],"id":40,"left_children":[1,3,5,7,9,11,13,15,17,-1,19,21,23,25,-1,-1,-1,-1,-1,-1,-1,-1,-1,-1,-1,-1,-1],"loss_changes":[6.1357582E1,6.4165115E0,4.7587296E1,1.9647217E0,2.6318563E1,5.138744E1,7.0016975E0,3.558619E0,4.8249817E-1,0E0,3.058979E0,2.0430706E1,4.9499996E1,9.200777E0,0E0,0E0,0E0,0E0,0E0,0E0,0E0,0E0,0E0,0E0,0E0,0E0,0E0],"parents":[2147483647,0,0,1,1,2,2,3,3,4,4,5,5,6,6,7,7,8,8,10,10,11,11,12,12,13,13],"right_children":[2,4,6,8,10,12,14,16,18,-1,20,22,24,26,-1,-1,-1,-1,-1,-1,-1,-1,-1,-1,-1,-1,-1],"split_conditions":[5.01E0,4.6875997E0,1.723E1,4E0,1.644E1,1.1463333E1,1.6876628E-1,3.1410441E0,1E0,-1.15011714E-1,8E0,1E0,1.153E1,1.088E1,-1.0322314E-1,8.36213E-2,-3.9341085E-2,5.888907E-2,9.8540835E-2,9.2206635E-2,-3.8642563E-2,8.597513E-2,-1.0342636E-1,1.0764865E-1,-5.6987028E-3,8.221921E-2,-8.936886E-2],"split_indices":[5,4,6,2,6,3,7,4,12,0,9,0,3,5,0,0,0,0,0,0,0,0,0,0,0,0,0],"split_type":[0,0,0,0,0,0,0,0,0,0,0,0,0,0,0,0,0,0,0,0,0,0,0,0,0,0,0],"sum_hessian":[4.431958E2,9.611401E1,3.470818E2,6.410956E1,3.2004456E1,2.712703E2,7.581151E1,7.862356E0,5.6247204E1,8.214302E0,2.3790154E1,5.8472916E1,2.1279736E2,1.0691353E1,6.5120155E1,4.590742E0,3.271614E0,9.315981E0,4.6931225E1,2.2391151E1,1.3990027E0,5.6122327E0,5.2860683E1,4.937831E1,1.6341907E2,4.622066E0,6.069287E0],"tree_param":{"num_deleted":"0","num_feature":"13","num_nodes":"27","size_leaf_vector":"1"}},{"base_weights":[3.1178508E-2,6.965922E-1,-1.4177684E-1,7.523087E-1,-7.713466E-2,-1.0559302E-2,-1.10338725E-1,9.070375E-1,4.3235058E-1,-8.372806E-1,1.6874567E-1,-5.650676E-2,9.424704E-2,-1.1011825E-1,9.3106836E-2,-1.0283735E-1,8.420395E-2,1.07445836E-1,-3.2957208E-3],"categories":[],"categories_nodes":[],"categories_segments":[],"categories_sizes":[],"default_left":[0,0,0,0,0,0,0,0,0,0,0,0,0,0,0,0,0,0,0],"id":41,"left_children":[1,3,5,7,-1,9,-1,11,13,15,17,-1,-1,-1,-1,-1,-1,-1,-1],"loss_changes":[5.079082E1,8.0261E0,4.42057E1,3.975071E0,0E0,4.599982E1,0E0,3.5865517E0,2.4478075E1,1.8613918E1,4.6630535E1,0E0,0E0,0E0,0E0,0E0,0E0,0E0,0E0],"parents":[2147483647,0,0,1,1,2,2,3,3,5,5,7,7,8,8,9,9,10,10],"right_children":[2,4,6,8,-1,10,-1,12,14,16,18,-1,-1,-1,-1,-1,-1,-1,-1],"split_conditions":[5.01E0,2.7E1,4.352935E0,4.984299E0,-7.713466E-2,1.1463333E1,-1.10338725E-1,1E0,1.644E1,1.015E1,1.153E1,-5.650676E-2,9.424704E-2,-1.1011825E-1,9.3106836E-2,-1.0283735E-1,8.420395E-2,1.07445836E-1,-3.2957208E-3],"split_indices":[5,10,4,4,0,3,0,9,6,5,3,0,0,0,0,0,0,0,0],"split_type":[0,0,0,0,0,0,0,0,0,0,0,0,0,0,0,0,0,0,0],"sum_hessian":[4.394678E2,9.003752E1,3.4943027E2,8.7214745E1,2.8227806E0,3.0836325E2,4.1067043E1,5.7549484E1,2.9665258E1,5.4305824E1,2.5405742E2,1.0013093E0,5.6548176E1,6.9834523E0,2.2681807E1,4.910563E1,5.2001944E0,4.5485504E1,2.0857191E2],"tree_param":{"num_deleted":"0","num_feature":"13","num_nodes":"19","size_leaf_vector":"1"}},{"base_weights":[-3.3654984E-2,6.442441E-1,-2.0478351E-1,7.0490015E-1,-7.667674E-2,-8.666029E-1,-2.609819E-3,3.799319E-1,9.2473155E-1,-9.602062E-2,-1.0331505E-1,1.2004394E-1,-1.10345565E-1,6.0349893E-2,-8.911047E-2,5.598898E-2,9.6909836E-2,-1.0277521E-1,6.871679E-2,-2.76763E-2,6.5903E-2],"categories":[],"categories_nodes":[],"categories_segments":[],"categories_sizes":[],"default_left":[0,0,0,0,0,0,0,0,0,0,0,0,0,0,0,0,0,0,0,0,0],"id":42,"left_children":[1,3,5,7,-1,9,11,13,15,17,-1,19,-1,-1,-1,-1,-1,-1,-1,-1,-1],"loss_changes":[4.6096355E1,7.39616E0,4.2428635E1,5.172394E0,0E0,9.423756E0,3.3066437E1,9.885967E0,1.9268799E-1,1.1133722E1,0E0,4.7312378E1,0E0,0E0,0E0,0E0,0E0,0E0,0E0,0E0,0E0],"parents":[2147483647,0,0,1,1,2,2,3,3,5,5,6,6,7,7,8,8,9,9,11,11],"right_children":[2,4,6,8,-1,10,12,14,16,18,-1,20,-1,-1,-1,-1,-1,-1,-1,-1,-1],"split_conditions":[5.01E0,2.7E1,1E0,7E0,-7.667674E-2,5E0,8E0,1.8594E2,7.725E0,3.536E1,-1.0331505E-1,6E0,-1.10345565E-1,6.0349893E-2,-8.911047E-2,5.598898E-2,9.6909836E-2,-1.0277521E-1,6.871679E-2,-2.76763E-2,6.5903E-2],"split_indices":[5,10,11,1,0,10,2,8,3,8,0,1,0,0,0,0,0,0,0,0,0],"split_type":[0,0,0,0,0,0,0,0,0,0,0,0,0,0,0,0,0,0,0,0,0],"sum_hessian":[3.9521817E2,7.910225E1,3.1611594E2,7.6321785E1,2.7804644E0,7.320186E1,2.4291408E2,3.1897388E1,4.4424393E1,1.32896805E1,5.9912178E1,2.1936398E2,2.3550089E1,2.7572718E1,4.3246703E0,6.2931843E0,3.813121E1,5.9266677E0,7.363013E0,1.2662667E2,9.273732E1],"tree_param":{"num_deleted":"0","num_feature":"13","num_nodes":"21","size_leaf_vector":"1"}},{"base_weights":[1.0607312E-2,4.4571447E-1,-2.2349831E-1,5.519377E-1,-1.0273512E-1,5.40556E-1,-4.0292543E-1,1.3404913E-1,1.1921709E0,-3.065145E-1,7.1506107E-1,-6.2826663E-1,4.0155968E-1,3.201368E-2,-1.20919816E-1,1.2784338E-1,-7.344307E-2,4.634096E-2,-1.0878227E-1,8.055619E-2,-6.94359E-2,-1.3542891E-2,-1.0066903E-1,9.834989E-2,-9.7991824E-2],"categories":[],"categories_nodes":[],"categories_segments":[],"categories_sizes":[],"default_left":[0,0,0,0,0,0,0,0,0,0,0,0,0,0,0,0,0,0,0,0,0,0,0,0,0],"id":43,"left_children":[1,3,5,7,-1,9,11,13,15,17,19,21,23,-1,-1,-1,-1,-1,-1,-1,-1,-1,-1,-1,-1],"loss_changes":[4.0344334E1,2.2245977E1,3.5525524E1,3.4588715E1,0E0,7.5223236E0,3.8166157E1,2.0312014E1,9.442566E0,6.001969E0,5.823084E0,3.0406631E1,3.8244884E1,0E0,0E0,0E0,0E0,0E0,0E0,0E0,0E0,0E0,0E0,0E0,0E0],"parents":[2147483647,0,0,1,1,2,2,3,3,5,5,6,6,7,7,8,8,9,9,10,10,11,11,12,12],"right_children":[2,4,6,8,-1,10,12,14,16,18,20,22,24,-1,-1,-1,-1,-1,-1,-1,-1,-1,-1,-1,-1],"split_conditions":[1.326E1,1.29325E1,5.01E0,1.2366923E1,-1.0273512E-1,5E0,1.46775E1,1.1695E1,3.7273433E0,7E0,2.7E1,1.1695E1,1.4786E1,3.201368E-2,-1.20919816E-1,1.2784338E-1,-7.344307E-2,4.634096E-2,-1.0878227E-1,8.055619E-2,-6.94359E-2,-1.3542891E-2,-1.0066903E-1,9.834989E-2,-9.7991824E-2],"split_indices":[8,3,5,3,0,1,3,3,4,10,10,3,3,0,0,0,0,0,0,0,0,0,0,0,0],"split_type":[0,0,0,0,0,0,0,0,0,0,0,0,0,0,0,0,0,0,0,0,0,0,0,0,0],"sum_hessian":[3.9409433E2,1.3754681E2,2.5654752E2,1.2887865E2,8.668163E0,4.840631E1,2.081412E2,7.87118E1,5.016685E1,8.139522E0,4.026679E1,1.6276796E2,4.537325E1,6.980323E1,8.908569E0,4.833892E1,1.8279285E0,4.3045607E0,3.834961E0,3.82398E1,2.0269873E0,7.128641E1,9.1481544E1,3.2127724E1,1.3245526E1],"tree_param":{"num_deleted":"0","num_feature":"13","num_nodes":"25","size_leaf_vector":"1"}},{"base_weights":[1.8065156E-2,6.3155466E-1,-1.3281135E-1,8.3481973E-1,2.5776216E-1,-1.3139115E-2,-1.07526734E-1,8.981123E-2,2.3097834E-1,-1.1481036E-1,8.0536723E-1,1.1615643E-1,-1.0713444E-1,-8.846382E-2,7.83741E-2,9.018726E-2,-4.343576E-3,-3.4119666E-2,4.8958626E-2],"categories":[],"categories_nodes":[],"categories_segments":[],"categories_sizes":[],"default_left":[0,0,0,0,0,0,0,0,0,0,0,0,0,0,0,0,0,0,0],"id":44,"left_children":[1,3,5,7,9,11,-1,-1,13,-1,15,17,-1,-1,-1,-1,-1,-1,-1],"loss_changes":[3.5325226E1,5.5080357E0,3.4544514E1,1.6402893E0,2.2465258E1,3.7462685E1,0E0,0E0,4.352014E0,0E0,1.7367773E0,4.1854485E1,0E0,0E0,0E0,0E0,0E0,0E0,0E0],"parents":[2147483647,0,0,1,1,2,2,3,3,4,4,5,5,8,8,10,10,11,11],"right_children":[2,4,6,8,10,12,-1,-1,14,-1,16,18,-1,-1,-1,-1,-1,-1,-1],"split_conditions":[5.01E0,4.6875997E0,4.352935E0,4.1889E2,1.644E1,8E0,-1.07526734E-1,8.981123E-2,4.3738346E0,-1.1481036E-1,8E0,3.3731406E0,-1.0713444E-1,-8.846382E-2,7.83741E-2,9.018726E-2,-4.343576E-3,-3.4119666E-2,4.8958626E-2],"split_indices":[5,4,4,8,6,2,0,0,4,0,9,4,0,0,0,0,0,0,0],"split_type":[0,0,0,0,0,0,0,0,0,0,0,0,0,0,0,0,0,0,0],"sum_hessian":[3.7973584E2,7.4326355E1,3.054095E2,4.7346416E1,2.6979937E1,2.7189804E2,3.3511436E1,4.2413452E1,4.932963E0,7.2557273E0,1.9724209E1,2.4308698E2,2.881106E1,1.4354544E0,3.4975085E0,1.765445E1,2.0697598E0,1.0930432E2,1.3378267E2],"tree_param":{"num_deleted":"0","num_feature":"13","num_nodes":"19","size_leaf_vector":"1"}},{"base_weights":[5.8537614E-2,-4.4764128E-1,2.0816872E-1,-1.0391649E-1,-1.1168989E-1,5.644263E-1,2.4082001E-2,8.3243716E-1,-6.774614E-1,7.973475E-1,-2.901051E-1,3.4958893E-1,-1.226233E0,9.3514785E-2,-5.408221E-2,-1.0146228E-1,6.8916716E-2,1.6252816E-2,9.3477175E-2,7.725107E-2,-1.170324E-1,-3.2686826E-3,1.0365557E-1,-1.7425416E-1,-1.08682744E-1],"categories":[],"categories_nodes":[],"categories_segments":[],"categories_sizes":[],"default_left":[0,0,0,0,0,0,0,0,0,0,0,0,0,0,0,0,0,0,0,0,0,0,0,0,0],"id":45,"left_children":[1,3,5,-1,7,9,11,13,15,17,19,21,23,-1,-1,-1,-1,-1,-1,-1,-1,-1,-1,-1,-1],"loss_changes":[2.8889894E1,1.7185911E1,1.9276686E1,0E0,3.0823608E1,2.0167757E1,7.978073E1,3.5630512E0,1.7274916E1,6.7379456E0,2.1656614E1,4.086416E1,1.0209427E0,0E0,0E0,0E0,0E0,0E0,0E0,0E0,0E0,0E0,0E0,0E0,0E0],"parents":[2147483647,0,0,1,1,2,2,4,4,5,5,6,6,7,7,8,8,9,9,10,10,11,11,12,12],"right_children":[2,4,6,-1,8,10,12,14,16,18,20,22,24,-1,-1,-1,-1,-1,-1,-1,-1,-1,-1,-1,-1],"split_conditions":[1E0,2.9261538E-1,5.46E0,-1.0391649E-1,3.3840902E0,3E0,3.0100483E-1,6E0,6.9368273E-1,6E0,1.149E1,2.8267795E-1,5.49E0,9.3514785E-2,-5.408221E-2,-1.0146228E-1,6.8916716E-2,1.6252816E-2,9.3477175E-2,7.725107E-2,-1.170324E-1,-3.2686826E-3,1.0365557E-1,-1.7425416E-1,-1.08682744E-1],"split_indices":[11,7,5,0,4,11,7,9,7,1,6,7,5,0,0,0,0,0,0,0,0,0,0,0,0],"split_type":[0,0,0,0,0,0,0,0,0,0,0,0,0,0,0,0,0,0,0,0,0,0,0,0,0],"sum_hessian":[3.7920425E2,8.606569E1,2.9313858E2,3.0416641E1,5.5649048E1,9.916377E1,1.939748E2,2.0675549E1,3.49735E1,7.7976494E1,2.1187279E1,1.5447832E2,3.9496475E1,1.9533596E1,1.1419529E0,2.8259228E1,6.7142725E0,1.4264687E1,6.3711807E1,9.654528E0,1.1532751E1,9.9861115E1,5.4617203E1,5.9521265E0,3.354435E1],"tree_param":{"num_deleted":"0","num_feature":"13","num_nodes":"25","size_leaf_vector":"1"}},{"base_weights":[-3.8662415E-2,-4.975941E-1,1.716799E-1,-9.0894234E-1,6.429725E-1,7.798945E-1,-1.2153822E-1,7.0930094E-1,-1.0507954E0,-1.20325744E-1,9.784876E-2,1.0613093E0,-1.7749374E-1,3.855148E-1,-1.1767043E0,9.939682E-3,8.47285E-2,3.271015E-2,-1.0756948E-1,1.1747762E-1,-8.833464E-2,-1.0008844E-1,8.644019E-2,-4.2644285E-2,5.668188E-2,-1.660184E-1,-1.0673962E-1],"categories":[],"categories_nodes":[],"categories_segments":[],"categories_sizes":[],"default_left":[0,0,0,0,0,0,0,0,0,0,0,0,0,0,0,0,0,0,0,0,0,0,0,0,0,0,0],"id":46,"left_children":[1,3,5,7,9,11,13,15,17,-1,-1,19,21,23,25,-1,-1,-1,-1,-1,-1,-1,-1,-1,-1,-1,-1],"loss_changes":[3.2352074E1,4.9991753E1,4.1103615E1,1.8606712E1,1.8830393E1,2.0376892E1,8.3925964E1,4.937718E-1,2.8200912E0,0E0,0E0,1.3847473E1,1.620321E1,1.5865317E1,9.1711426E-1,0E0,0E0,0E0,0E0,0E0,0E0,0E0,0E0,0E0,0E0,0E0,0E0],"parents":[2147483647,0,0,1,1,2,2,3,3,4,4,5,5,6,6,7,7,8,8,11,11,12,12,13,13,14,14],"right_children":[2,4,6,8,10,12,14,16,18,-1,-1,20,22,24,26,-1,-1,-1,-1,-1,-1,-1,-1,-1,-1,-1,-1],"split_conditions":[2.8267795E-1,4.4E1,3.0100483E-1,3.8394517E-1,1.45375E1,1.2E1,5.46E0,5E0,5.46E0,-1.20325744E-1,9.784876E-2,8.03E0,3.9E1,5E0,5.49E0,9.939682E-3,8.47285E-2,3.271015E-2,-1.0756948E-1,1.1747762E-1,-8.833464E-2,-1.0008844E-1,8.644019E-2,-4.2644285E-2,5.668188E-2,-1.660184E-1,-1.0673962E-1],"split_indices":[7,11,7,4,3,10,5,1,8,0,0,5,11,1,5,0,0,0,0,0,0,0,0,0,0,0,0],"split_type":[0,0,0,0,0,0,0,0,0,0,0,0,0,0,0,0,0,0,0,0,0,0,0,0,0,0,0],"sum_hessian":[3.3325598E2,1.0430792E2,2.2894804E2,7.680947E1,2.7498451E1,7.393235E1,1.5501569E2,5.8679795E0,7.094149E1,3.8310623E0,2.3667389E1,5.7053493E1,1.687886E1,1.05130554E2,4.9885143E1,1.4000338E0,4.4679456E0,1.0437742E0,6.989771E1,5.428213E1,2.7713616E0,9.450036E0,7.428825E0,1.8943096E1,8.6187454E1,6.582418E0,4.3302723E1],"tree_param":{"num_deleted":"0","num_feature":"13","num_nodes":"27","size_leaf_vector":"1"}},{"base_weights":[5.1208448E-2,1.4655666E-1,-8.798601E-1,-3.2860488E-2,6.8168324E-1,-2.2945781E-1,-9.8709576E-2,7.234461E-2,-9.872877E-1,7.8729725E-1,-9.752439E-2,-7.5538814E-2,4.0962677E-2,-1.3225712E-2,7.651063E-2,2.5072912E-2,-1.0618748E-1,-8.641577E-2,8.528619E-2],"categories":[],"categories_nodes":[],"categories_segments":[],"categories_sizes":[],"default_left":[0,0,0,0,0,0,0,0,0,0,0,0,0,0,0,0,0,0,0],"id":47,"left_children":[1,3,5,7,9,11,-1,13,15,17,-1,-1,-1,-1,-1,-1,-1,-1,-1],"loss_changes":[3.0315424E1,2.971867E1,1.9865322E0,2.3426092E1,1.4366543E1,2.256825E0,0E0,2.992768E1,2.404932E0,8.706875E0,0E0,0E0,0E0,0E0,0E0,0E0,0E0,0E0,0E0],"parents":[2147483647,0,0,1,1,2,2,3,3,4,4,5,5,7,7,8,8,9,9],"right_children":[2,4,6,8,10,12,-1,14,16,18,-1,-1,-1,-1,-1,-1,-1,-1,-1],"split_conditions":[2.4E1,7E0,3.28E0,6E0,6.16E0,9E0,-9.8709576E-2,8E0,9.98E0,1.1E1,-9.752439E-2,-7.5538814E-2,4.0962677E-2,-1.3225712E-2,7.651063E-2,2.5072912E-2,-1.0618748E-1,-8.641577E-2,8.528619E-2],"split_indices":[10,1,5,2,5,9,0,9,6,10,0,0,0,0,0,0,0,0,0],"split_type":[0,0,0,0,0,0,0,0,0,0,0,0,0,0,0,0,0,0,0],"sum_hessian":[3.3903073E2,3.0830106E2,3.0729685E1,2.3159164E2,7.670941E1,4.793862E0,2.5935822E1,2.0943062E2,2.2161026E1,7.260627E1,4.1031427E0,2.5299072E0,2.2639546E0,1.6230438E2,4.712624E1,1.1250781E0,2.1035948E1,2.3073754E0,7.02989E1],"tree_param":{"num_deleted":"0","num_feature":"13","num_nodes":"19","size_leaf_vector":"1"}},{"base_weights":[-2.5474565E-2,-5.907788E-1,1.3001788E-1,6.184596E-1,-8.4347576E-1,4.9817723E-1,-1.0153009E-1,-5.791196E-2,7.9530275E-1,-1.2497959E-1,-1.016255E-1,7.2956944E-1,-2.3247172E-1,-3.037764E-1,6.425356E-1,8.984358E-2,1.0008182E-2,-9.4946645E-2,5.94574E-2,2.4715552E-2,1.0580168E-1,7.10104E-2,-1.1076448E-1,2.7727952E-2,-1.1718056E-1,-1.1201373E-2,9.5077306E-2],"categories":[],"categories_nodes":[],"categories_segments":[],"categories_sizes":[],"default_left":[0,0,0,0,0,0,0,0,0,0,0,0,0,0,0,0,0,0,0,0,0,0,0,0,0,0,0],"id":48,"left_children":[1,3,5,7,9,11,13,-1,15,17,-1,19,21,23,25,-1,-1,-1,-1,-1,-1,-1,-1,-1,-1,-1,-1],"loss_changes":[2.7180107E1,2.0902166E1,2.073514E1,3.0243263E0,6.7741203E0,1.603726E1,2.2736187E1,0E0,6.965833E-1,7.6343694E0,0E0,1.1071007E1,2.0033875E1,6.0070652E1,7.6267757E0,0E0,0E0,0E0,0E0,0E0,0E0,0E0,0E0,0E0,0E0,0E0,0E0],"parents":[2147483647,0,0,1,1,2,2,3,3,4,4,5,5,6,6,8,8,9,9,11,11,12,12,13,13,14,14],"right_children":[2,4,6,8,10,12,14,-1,16,18,-1,20,22,24,26,-1,-1,-1,-1,-1,-1,-1,-1,-1,-1,-1,-1],"split_conditions":[1E0,7.47E0,1.326E1,8.46E0,5E0,3E0,4.4E1,-5.791196E-2,6.9E0,3.536E1,-1.016255E-1,1.235E1,1.149E1,1.1695E1,1.45375E1,8.984358E-2,1.0008182E-2,-9.4946645E-2,5.94574E-2,2.4715552E-2,1.0580168E-1,7.10104E-2,-1.1076448E-1,2.7727952E-2,-1.1718056E-1,-1.1201373E-2,9.5077306E-2],"split_indices":[11,3,8,6,10,11,11,0,3,8,0,3,6,3,3,0,0,0,0,0,0,0,0,0,0,0,0],"split_type":[0,0,0,0,0,0,0,0,0,0,0,0,0,0,0,0,0,0,0,0,0,0,0,0,0,0,0],"sum_hessian":[3.0734048E2,6.569652E1,2.4164397E2,1.1105515E1,5.4591003E1,9.285453E1,1.4878943E2,1.1362289E0,9.969286E0,1.0916886E1,4.3674118E1,7.052208E1,2.233245E1,1.17455345E2,3.1334093E1,8.42689E0,1.5423952E0,4.9385824E0,5.9783034E0,2.9275524E1,4.124655E1,1.0842988E1,1.1489463E1,7.0765625E1,4.668972E1,9.272381E0,2.206171E1],"tree_param":{"num_deleted":"0","num_feature":"13","num_nodes":"27","size_leaf_vector":"1"}},{"base_weights":[3.3568E-2,1.1694483E-1,-8.5929126E-1,-1.5159518E-1,5.027771E-1,-1.5536034E-1,-9.784587E-2,2.822562E-1,-6.422016E-1,5.897282E-1,-1.0804286E-1,4.6512157E-2,-6.994124E-2,5.7459023E-2,-8.986861E-2,6.423865E-2,-8.706697E-2,-4.71053E-2,6.5493844E-2],"categories":[],"categories_nodes":[],"categories_segments":[],"categories_sizes":[],"default_left":[0,0,0,0,0,0,0,0,0,0,0,0,0,0,0,0,0,0,0],"id":49,"left_children":[1,3,5,7,9,11,-1,13,15,17,-1,-1,-1,-1,-1,-1,-1,-1,-1],"loss_changes":[2.334768E1,2.9759647E1,2.095312E0,3.6299404E1,1.6853691E1,2.0359485E0,0E0,3.1845098E1,2.402084E1,8.077717E0,0E0,0E0,0E0,0E0,0E0,0E0,0E0,0E0,0E0],"parents":[2147483647,0,0,1,1,2,2,3,3,4,4,5,5,7,7,8,8,9,9],"right_children":[2,4,6,8,10,12,-1,14,16,18,-1,-1,-1,-1,-1,-1,-1,-1,-1],"split_conditions":[2.4E1,6E0,3.28E0,4E0,1.2963333E1,2.7E1,-9.784587E-2,3.632835E0,5.01E0,1E0,-1.0804286E-1,4.6512157E-2,-6.994124E-2,5.7459023E-2,-8.986861E-2,6.423865E-2,-8.706697E-2,-4.71053E-2,6.5493844E-2],"split_indices":[10,1,5,2,3,10,0,4,5,11,0,0,0,0,0,0,0,0,0],"split_type":[0,0,0,0,0,0,0,0,0,0,0,0,0,0,0,0,0,0,0],"sum_hessian":[3.1127847E2,2.854881E2,2.5790379E1,1.68688E2,1.16800095E2,4.0674357E0,2.1722944E1,8.97475E1,7.894051E1,1.1131413E2,5.485962E0,1.9680208E0,2.0994148E0,7.235097E1,1.739653E1,1.1646275E1,6.7294235E1,6.086181E0,1.0522795E2],"tree_param":{"num_deleted":"0","num_feature":"13","num_nodes":"19","size_leaf_vector":"1"}},{"base_weights":[4.7842156E-2,1.2756829E-1,-8.482155E-1,-2.3217225E-2,6.263452E-1,-9.7154036E-2,-9.275017E-2,3.8978392E-1,-3.3470267E-1,7.700454E-1,-6.768626E-1,-6.897261E-2,6.203104E-2,4.846965E-2,-1.0129344E-1,1.29099535E-2,-6.60165E-2,-4.488896E-2,9.270046E-2,-8.624043E-2,1.9702347E-2],"categories":[],"categories_nodes":[],"categories_segments":[],"categories_sizes":[],"default_left":[0,0,0,0,0,0,0,0,0,0,0,0,0,0,0,0,0,0,0,0,0],"id":50,"left_children":[1,3,5,7,9,-1,11,13,15,17,19,-1,-1,-1,-1,-1,-1,-1,-1,-1,-1],"loss_changes":[2.1555344E1,2.0813818E1,2.2073765E0,2.7572996E1,1.2550327E1,0E0,2.3715677E0,1.2763071E1,1.852293E1,1.1574482E1,1.2905757E0,0E0,0E0,0E0,0E0,0E0,0E0,0E0,0E0,0E0,0E0],"parents":[2147483647,0,0,1,1,2,2,3,3,4,4,6,6,7,7,8,8,9,9,10,10],"right_children":[2,4,6,8,10,-1,12,14,16,18,20,-1,-1,-1,-1,-1,-1,-1,-1,-1,-1],"split_conditions":[2.4E1,1.9E1,4.4038567E-1,1.326E1,1.707E1,-9.7154036E-2,9E0,1.29325E1,1.1474167E1,1.65E1,5.2250856E-1,-6.897261E-2,6.203104E-2,4.846965E-2,-1.0129344E-1,1.29099535E-2,-6.60165E-2,-4.488896E-2,9.270046E-2,-8.624043E-2,1.9702347E-2],"split_indices":[10,10,7,8,6,0,9,3,3,6,7,0,0,0,0,0,0,0,0,0,0],"split_type":[0,0,0,0,0,0,0,0,0,0,0,0,0,0,0,0,0,0,0,0,0],"sum_hessian":[2.9921518E2,2.7555545E2,2.365973E1,2.123218E2,6.323366E1,2.009357E1,3.5661614E0,9.117747E1,1.2114433E2,5.7322075E1,5.911589E0,1.9588947E0,1.6072665E0,8.601206E1,5.165404E0,5.0204052E1,7.094028E1,6.3270097E0,5.0995064E1,4.887107E0,1.0244819E0],"tree_param":{"num_deleted":"0","num_feature":"13","num_nodes":"21","size_leaf_vector":"1"}},{"base_weights":[-7.070768E-2,-1.9360714E-1,6.6502804E-1,1.8460831E-1,-7.8833926E-1,-1.6256696E-1,9.608074E-2,-7.680519E-2,7.2397417E-1,1.030046E-1,-9.743448E-1,-1.11709826E-1,6.1254825E-2,5.3240735E-2,-7.856463E-2,8.550091E-2,-8.2035884E-2,-1.6042283E-2,-1.13490395E-1],"categories":[],"categories_nodes":[],"categories_segments":[],"categories_sizes":[],"default_left":[0,0,0,0,0,0,0,0,0,0,0,0,0,0,0,0,0,0,0],"id":51,"left_children":[1,3,5,7,9,11,-1,13,15,-1,17,-1,-1,-1,-1,-1,-1,-1,-1],"loss_changes":[2.4345688E1,5.194013E1,9.595097E0,2.0015583E1,3.134288E1,8.82873E0,0E0,4.1984013E1,1.0072548E1,0E0,1.0519531E1,0E0,0E0,0E0,0E0,0E0,0E0,0E0,0E0],"parents":[2147483647,0,0,1,1,2,2,3,3,4,4,5,5,7,7,8,8,10,10],"right_children":[2,4,6,8,10,12,-1,14,16,-1,18,-1,-1,-1,-1,-1,-1,-1,-1],"split_conditions":[4.4E1,1.1695E1,1.45375E1,1.1463333E1,1E0,7E0,9.608074E-2,5.01E0,6E0,1.030046E-1,1.047E1,-1.11709826E-1,6.1254825E-2,5.3240735E-2,-7.856463E-2,8.550091E-2,-8.2035884E-2,-1.6042283E-2,-1.13490395E-1],"split_indices":[11,3,3,3,0,1,0,5,9,0,8,0,0,0,0,0,0,0,0],"split_type":[0,0,0,0,0,0,0,0,0,0,0,0,0,0,0,0,0,0,0],"sum_hessian":[2.6682266E2,2.292628E2,3.755988E1,1.4056264E2,8.8700165E1,1.0007927E1,2.7551952E1,9.525376E1,4.5308872E1,7.8101945E0,8.088997E1,4.2871847E0,5.7207427E0,5.136074E1,4.389302E1,4.2176594E1,3.1322799E0,1.3657121E1,6.723285E1],"tree_param":{"num_deleted":"0","num_feature":"13","num_nodes":"19","size_leaf_vector":"1"}},{"base_weights":[3.29561E-3,7.5333394E-2,-8.357628E-1,-6.47109E-2,5.7126474E-1,-9.6140474E-2,-1.036693E-1,2.8832838E-1,-3.1416178E-1,-8.6283505E-2,7.0475936E-1,-6.7189835E-2,5.9247013E-2,5.3118523E-2,-2.6138082E-2,4.7183033E-2,-5.1368106E-2,8.4171675E-2,-4.4302024E-2],"categories":[],"categories_nodes":[],"categories_segments":[],"categories_sizes":[],"default_left":[0,0,0,0,0,0,0,0,0,0,0,0,0,0,0,0,0,0,0],"id":52,"left_children":[1,3,5,7,9,-1,11,13,15,-1,17,-1,-1,-1,-1,-1,-1,-1,-1],"loss_changes":[1.6246271E1,1.7225647E1,1.8551464E0,1.716561E1,1.1060919E1,0E0,2.0728726E0,1.0925419E1,1.8134209E1,0E0,8.311419E0,0E0,0E0,0E0,0E0,0E0,0E0,0E0,0E0],"parents":[2147483647,0,0,1,1,2,2,3,3,4,4,6,6,7,7,8,8,10,10],"right_children":[2,4,6,8,10,-1,12,14,16,-1,18,-1,-1,-1,-1,-1,-1,-1,-1],"split_conditions":[2.4E1,1.9E1,4.4038567E-1,1.326E1,4E0,-9.6140474E-2,9E0,3.0100483E-1,4.81E0,-8.6283505E-2,1.707E1,-6.7189835E-2,5.9247013E-2,5.3118523E-2,-2.6138082E-2,4.7183033E-2,-5.1368106E-2,8.4171675E-2,-4.4302024E-2],"split_indices":[10,10,7,8,9,0,9,7,5,0,6,0,0,0,0,0,0,0,0],"split_type":[0,0,0,0,0,0,0,0,0,0,0,0,0,0,0,0,0,0,0],"sum_hessian":[2.6674103E2,2.4648882E2,2.0252205E1,1.9288907E2,5.3599743E1,1.7018295E1,3.2339091E0,7.9797935E1,1.1309113E2,4.099235E0,4.9500507E1,1.7997069E0,1.4342022E0,5.5369747E1,2.4428185E1,2.261927E1,9.047186E1,4.4461815E1,5.0386925E0],"tree_param":{"num_deleted":"0","num_feature":"13","num_nodes":"19","size_leaf_vector":"1"}},{"base_weights":[3.9771564E-2,1.0814958E-1,-8.266223E-1,-5.4245077E-2,5.899409E-1,-9.538765E-2,-1.2528728E-1,1.7879674E-1,-5.477315E-1,-9.027969E-2,6.65831E-1,5.4238994E-2,-6.639391E-2,-8.487941E-3,8.188578E-2,-7.827721E-2,4.0112413E-2,-8.524462E-2,7.40161E-2],"categories":[],"categories_nodes":[],"categories_segments":[],"categories_sizes":[],"default_left":[0,0,0,0,0,0,0,0,0,0,0,0,0,0,0,0,0,0,0],"id":53,"left_children":[1,3,5,7,9,-1,11,13,15,-1,17,-1,-1,-1,-1,-1,-1,-1,-1],"loss_changes":[1.5846888E1,1.9389563E1,1.6272726E0,2.1483501E1,7.6762486E0,0E0,1.855196E0,2.1513765E1,1.3671452E1,0E0,7.4031544E0,0E0,0E0,0E0,0E0,0E0,0E0,0E0,0E0],"parents":[2147483647,0,0,1,1,2,2,3,3,4,4,6,6,7,7,8,8,10,10],"right_children":[2,4,6,8,10,-1,12,14,16,-1,18,-1,-1,-1,-1,-1,-1,-1,-1],"split_conditions":[2.4E1,7E0,4.4038567E-1,3.632835E0,1.1E1,-9.538765E-2,4.4463086E-1,3.3731406E0,1.9E1,-9.027969E-2,2.8563938E-1,5.4238994E-2,-6.639391E-2,-8.487941E-3,8.188578E-2,-7.827721E-2,4.0112413E-2,-8.524462E-2,7.40161E-2],"split_indices":[10,1,7,4,10,0,7,4,10,0,7,0,0,0,0,0,0,0,0],"split_type":[0,0,0,0,0,0,0,0,0,0,0,0,0,0,0,0,0,0,0],"sum_hessian":[2.6498376E2,2.4641151E2,1.8572254E1,1.8495663E2,6.1454872E1,1.5415154E1,3.1570992E0,1.26062935E2,5.8893703E1,2.44603E0,5.9008842E1,1.406614E0,1.7504853E0,8.989688E1,3.6166054E1,4.7341743E1,1.1551961E1,2.2654736E0,5.674337E1],"tree_param":{"num_deleted":"0","num_feature":"13","num_nodes":"19","size_leaf_vector":"1"}},{"base_weights":[9.2004845E-3,7.322738E-2,-8.1832004E-1,-6.355044E-2,5.3110814E-1,-1.7322582E-1,-9.467277E-2,-4.0181425E-1,1.8605857E-1,6.527044E-1,-9.3679085E-2,3.9618883E-2,-6.4569056E-2,8.70046E-3,-1.0522027E-1,1.04638375E-1,-1.759271E-2,-8.317175E-2,7.328762E-2],"categories":[],"categories_nodes":[],"categories_segments":[],"categories_sizes":[],"default_left":[0,0,0,0,0,0,0,0,0,0,0,0,0,0,0,0,0,0,0],"id":54,"left_children":[1,3,5,7,9,11,-1,13,15,17,-1,-1,-1,-1,-1,-1,-1,-1,-1],"loss_changes":[1.338268E1,1.4708136E1,1.338645E0,1.53834095E1,1.0250105E1,1.39525E0,0E0,2.4666948E1,3.288676E1,6.6146164E0,0E0,0E0,0E0,0E0,0E0,0E0,0E0,0E0,0E0],"parents":[2147483647,0,0,1,1,2,2,3,3,4,4,5,5,7,7,8,8,9,9],"right_children":[2,4,6,8,10,12,-1,14,16,18,-1,-1,-1,-1,-1,-1,-1,-1,-1],"split_conditions":[2.4E1,7E0,3.28E0,7.99E0,6.16E0,2.7E1,-9.467277E-2,5.46E0,8.03E0,1.1E1,-9.3679085E-2,3.9618883E-2,-6.4569056E-2,8.70046E-3,-1.0522027E-1,1.04638375E-1,-1.759271E-2,-8.317175E-2,7.328762E-2],"split_indices":[10,1,5,5,5,10,0,5,5,10,0,0,0,0,0,0,0,0,0],"split_type":[0,0,0,0,0,0,0,0,0,0,0,0,0,0,0,0,0,0,0],"sum_hessian":[2.5045068E2,2.333105E2,1.7140184E1,1.8030972E2,5.3000786E1,3.2353702E0,1.3904815E1,7.630005E1,1.0400967E2,4.945909E1,3.541693E0,1.5403646E0,1.6950054E0,4.405524E1,3.2244804E1,3.0242397E1,7.376727E1,2.0540001E0,4.7405094E1],"tree_param":{"num_deleted":"0","num_feature":"13","num_nodes":"19","size_leaf_vector":"1"}},{"base_weights":[1.5279951E-2,9.97251E-2,-4.1765276E-2,-5.204773E-1,1.370414E-1,1.8639332E-1,-1.10893905E-1,-7.843142E-1,2.2808021E-1,4.420375E-2,-1.14691E-1,6.6191934E-2,-1.03257515E-1,3.5452675E-2,-4.0554922E-2],"categories":[],"categories_nodes":[],"categories_segments":[],"categories_sizes":[],"default_left":[0,0,0,0,0,0,0,0,0,0,0,0,0,0,0],"id":55,"left_children":[1,-1,3,5,7,9,-1,11,13,-1,-1,-1,-1,-1,-1],"loss_changes":[1.37192745E1,0E0,1.9906214E1,2.6505713E1,1.4396431E1,1.0588794E1,0E0,6.2369766E0,1.2565054E1,0E0,0E0,0E0,0E0,0E0,0E0],"parents":[2147483647,0,0,2,2,3,3,4,4,5,5,7,7,8,8],"right_children":[2,-1,4,6,8,10,-1,12,14,-1,-1,-1,-1,-1,-1],"split_conditions":[1E0,9.97251E-2,1.604E1,8.5125E0,3E0,4.6875997E0,-1.10893905E-1,8.156667E0,1.772E1,4.420375E-2,-1.14691E-1,6.6191934E-2,-1.03257515E-1,3.5452675E-2,-4.0554922E-2],"split_indices":[0,0,6,3,9,4,0,3,6,0,0,0,0,0,0],"split_type":[0,0,0,0,0,0,0,0,0,0,0,0,0,0,0],"sum_hessian":[2.4317021E2,1.2445902E1,2.3072432E2,6.2223904E1,1.6850041E2,2.8578348E1,3.3645557E1,1.44674835E1,1.5403293E2,2.454132E1,4.037026E0,1.8755164E0,1.2591968E1,1.2877515E2,2.5257774E1],"tree_param":{"num_deleted":"0","num_feature":"13","num_nodes":"15","size_leaf_vector":"1"}},{"base_weights":[-7.292422E-2,-1.8912901E-1,6.286337E-1,-5.610775E-1,2.2337614E-1,-1.008205E-1,9.3371324E-2,-8.7654695E-2,-1.072966E-1,3.933933E-1,-7.6819307E-1,-1.1300226E-1,6.661347E-1,-6.0658704E-2,5.175362E-2,-5.5231232E-2,4.803454E-2,-7.945054E-3,-9.2680074E-2,7.238852E-2,2.1824978E-2],"categories":[],"categories_nodes":[],"categories_segments":[],"categories_sizes":[],"default_left":[0,0,0,0,0,0,0,0,0,0,0,0,0,0,0,0,0,0,0,0,0],"id":56,"left_children":[1,3,5,7,9,11,-1,13,-1,15,17,-1,19,-1,-1,-1,-1,-1,-1,-1,-1],"loss_changes":[1.8125858E1,2.9317045E1,7.130518E0,2.422062E1,1.5631018E1,8.825164E0,0E0,1.7025934E1,0E0,6.702321E0,1.4171972E0,0E0,9.854555E-3,0E0,0E0,0E0,0E0,0E0,0E0,0E0,0E0],"parents":[2147483647,0,0,1,1,2,2,3,3,4,4,5,5,7,7,9,9,10,10,12,12],"right_children":[2,4,6,8,10,12,-1,14,-1,16,18,-1,20,-1,-1,-1,-1,-1,-1,-1,-1],"split_conditions":[4.4E1,6E0,1.45375E1,1.1474167E1,2.4E1,3.6714797E0,9.3371324E-2,1.604E1,-1.072966E-1,1E0,9.97E0,-1.1300226E-1,1.6E1,-6.0658704E-2,5.175362E-2,-5.5231232E-2,4.803454E-2,-7.945054E-3,-9.2680074E-2,7.238852E-2,2.1824978E-2],"split_indices":[11,1,3,3,10,4,0,6,0,11,3,0,10,0,0,0,0,0,0,0,0],"split_type":[0,0,0,0,0,0,0,0,0,0,0,0,0,0,0,0,0,0,0,0,0],"sum_hessian":[2.1987827E2,1.8926E2,3.0618269E1,9.933302E1,8.992698E1,9.226637E0,2.1391632E1,5.221393E1,4.7119095E1,7.7279655E1,1.264732E1,3.7376182E0,5.4890194E0,2.8109015E1,2.4104912E1,6.056477E0,7.122318E1,2.64828E0,9.99904E0,4.31625E0,1.1727694E0],"tree_param":{"num_deleted":"0","num_feature":"13","num_nodes":"21","size_leaf_vector":"1"}},{"base_weights":[-2.5519637E-2,5.0310856E-1,-1.6067867E-1,7.787579E-1,1.1272655E-1,-8.3095133E-1,1.1580787E-2,8.7483245E-1,-8.1990495E-2,-1.0545639E-1,5.900621E-1,-1.0014986E-1,7.3761985E-2,8.747545E-1,-1.516983E-1,9.2687875E-2,-2.301461E-3,-7.789306E-2,5.802129E-2,8.106987E-2,2.85905E-4,4.256748E-2,9.1380976E-2,-4.3184888E-2,5.133114E-2],"categories":[],"categories_nodes":[],"categories_segments":[],"categories_sizes":[],"default_left":[0,0,0,0,0,0,0,0,0,0,0,0,0,0,0,0,0,0,0,0,0,0,0,0,0],"id":57,"left_children":[1,3,5,7,9,11,13,15,17,-1,19,-1,-1,21,23,-1,-1,-1,-1,-1,-1,-1,-1,-1,-1],"loss_changes":[1.5546119E1,4.6809597E0,2.0000132E1,2.2057438E0,1.1493081E1,1.021207E1,1.968427E1,1.1101379E0,2.0697646E0,0E0,1.8748198E0,0E0,0E0,6.4086914E-4,2.211404E1,0E0,0E0,0E0,0E0,0E0,0E0,0E0,0E0,0E0,0E0],"parents":[2147483647,0,0,1,1,2,2,3,3,4,4,5,5,6,6,7,7,8,8,10,10,13,13,14,14],"right_children":[2,4,6,8,10,12,14,16,18,-1,20,-1,-1,22,24,-1,-1,-1,-1,-1,-1,-1,-1,-1,-1],"split_conditions":[5.01E0,4.6875997E0,1.1463333E1,4.1889E2,5.8616495E0,1.015E1,1.153E1,2.4E1,4.4051185E0,-1.0545639E-1,8.976666E0,-1.0014986E-1,7.3761985E-2,1.034E1,8E0,9.2687875E-2,-2.301461E-3,-7.789306E-2,5.802129E-2,8.106987E-2,2.85905E-4,4.256748E-2,9.1380976E-2,-4.3184888E-2,5.133114E-2],"split_indices":[5,4,3,8,4,5,3,10,4,0,3,0,0,8,9,0,0,0,0,0,0,0,0,0,0],"split_type":[0,0,0,0,0,0,0,0,0,0,0,0,0,0,0,0,0,0,0,0,0,0,0,0,0],"sum_hessian":[2.1545242E2,4.3315674E1,1.7213675E2,2.4805561E1,1.851011E1,3.4412323E1,1.3772443E2,2.2300117E1,2.505444E0,5.021388E0,1.3488723E1,3.1363737E1,3.048587E0,2.1214851E1,1.1650957E2,2.1047693E1,1.2524244E0,1.1348224E0,1.3706217E0,9.528033E0,3.9606893E0,2.649434E0,1.8565416E1,8.22222E1,3.4287373E1],"tree_param":{"num_deleted":"0","num_feature":"13","num_nodes":"25","size_leaf_vector":"1"}},{"base_weights":[2.1968648E-2,9.790393E-2,-3.2433346E-2,-4.229748E-1,1.4501584E-1,-9.8237014E-1,5.832342E-1,7.4334365E-1,-1.5825677E-1,5.443881E-2,-1.0386031E-1,-1.133877E-1,9.055739E-2,9.643882E-2,-1.1261577E-2,2.8900638E-2,-1.175918E-1],"categories":[],"categories_nodes":[],"categories_segments":[],"categories_sizes":[],"default_left":[0,0,0,0,0,0,0,0,0,0,0,0,0,0,0,0,0],"id":58,"left_children":[1,-1,3,5,7,9,11,13,15,-1,-1,-1,-1,-1,-1,-1,-1],"loss_changes":[1.1520703E1,0E0,1.4597885E1,3.7602528E1,2.6423656E1,4.2274017E0,1.4384511E1,9.368269E0,4.450504E1,0E0,0E0,0E0,0E0,0E0,0E0,0E0,0E0],"parents":[2147483647,0,0,2,2,3,3,4,4,5,5,6,6,7,7,8,8],"right_children":[2,-1,4,6,8,10,12,14,16,-1,-1,-1,-1,-1,-1,-1,-1],"split_conditions":[1E0,9.790393E-2,2.8267795E-1,4.4E1,3.0100483E-1,4.81E0,1.45375E1,1.2E1,5.46E0,5.443881E-2,-1.0386031E-1,-1.133877E-1,9.055739E-2,9.643882E-2,-1.1261577E-2,2.8900638E-2,-1.175918E-1],"split_indices":[0,0,7,11,7,5,3,10,5,0,0,0,0,0,0,0,0],"split_type":[0,0,0,0,0,0,0,0,0,0,0,0,0,0,0,0,0],"sum_hessian":[2.1965897E2,1.0900195E1,2.0875877E2,6.478725E1,1.4397153E2,4.1653786E1,2.313346E1,4.7939808E1,9.603172E1,1.1713018E0,4.0482483E1,3.2583747E0,1.9875084E1,3.7999954E1,9.939852E0,6.720921E1,2.8822512E1],"tree_param":{"num_deleted":"0","num_feature":"13","num_nodes":"17","size_leaf_vector":"1"}},{"base_weights":[-6.1059635E-2,-1.9333237E-1,6.4455885E-1,1.6508389E-1,-7.795867E-1,-9.7810775E-2,7.6739097E-1,-2.4271977E-1,4.8505288E-1,-1.8719466E-1,-1.10155545E-1,9.9956244E-2,1.396034E-1,2.119491E-2,-1.16990164E-1,5.726344E-2,-7.779886E-2,-1.0296273E-1,4.0204E-2,7.209472E-2,-8.5805856E-2],"categories":[],"categories_nodes":[],"categories_segments":[],"categories_sizes":[],"default_left":[0,0,0,0,0,0,0,0,0,0,0,0,0,0,0,0,0,0,0,0,0],"id":59,"left_children":[1,3,5,7,9,-1,11,13,15,17,-1,-1,19,-1,-1,-1,-1,-1,-1,-1,-1],"loss_changes":[1.8094263E1,3.4359013E1,6.854496E0,1.34171505E1,1.1615875E1,0E0,4.091654E0,1.9419533E1,6.8000937E0,1.1846007E1,0E0,0E0,5.8383303E0,0E0,0E0,0E0,0E0,0E0,0E0,0E0,0E0],"parents":[2147483647,0,0,1,1,2,2,3,3,4,4,6,6,7,7,8,8,9,9,12,12],"right_children":[2,4,6,8,10,-1,12,14,16,18,-1,-1,20,-1,-1,-1,-1,-1,-1,-1,-1],"split_conditions":[4.4E1,1.1695E1,2.06493E0,1.604E1,1.326E1,-9.7810775E-2,2.4928474E0,1.316E1,2.7E1,6E0,-1.10155545E-1,9.9956244E-2,1.723E1,2.119491E-2,-1.16990164E-1,5.726344E-2,-7.779886E-2,-1.0296273E-1,4.0204E-2,7.209472E-2,-8.5805856E-2],"split_indices":[11,3,4,6,8,0,4,6,10,2,0,0,6,0,0,0,0,0,0,0,0],"split_type":[0,0,0,0,0,0,0,0,0,0,0,0,0,0,0,0,0,0,0,0,0],"sum_hessian":[1.915304E2,1.6190607E2,2.9624329E1,1.0092333E2,6.0982742E1,1.5946978E0,2.802963E1,4.4477608E1,5.644572E1,2.2030369E1,3.8952374E1,2.0029884E1,7.9997478E0,3.0360779E1,1.411683E1,5.329666E1,3.149062E0,8.759482E0,1.3270886E1,5.2297206E0,2.7700274E0],"tree_param":{"num_deleted":"0","num_feature":"13","num_nodes":"21","size_leaf_vector":"1"}},{"base_weights":[3.1618576E-2,3.4570363E-1,-1.8095565E-1,4.3421388E-1,-9.476659E-2,-3.2579613E-1,4.6222126E-1,3.7240814E-2,9.687337E-1,3.5214387E-2,-8.962024E-1,9.185351E-2,-8.6755954E-2,8.612519E-2,-1.8144704E-2,1.0545532E-1,-6.1444063E-2,-2.175832E-2,5.949369E-2,-1.1146098E-1,-2.9252106E-2],"categories":[],"categories_nodes":[],"categories_segments":[],"categories_sizes":[],"default_left":[0,0,0,0,0,0,0,0,0,0,0,0,0,0,0,0,0,0,0,0,0],"id":60,"left_children":[1,3,5,7,-1,9,11,13,15,17,19,-1,-1,-1,-1,-1,-1,-1,-1,-1,-1],"loss_changes":[1.3047705E1,9.437233E0,1.1016796E1,1.5767716E1,0E0,1.975687E1,1.4057098E1,8.045231E0,4.9550514E0,8.566122E0,4.5741367E0,0E0,0E0,0E0,0E0,0E0,0E0,0E0,0E0,0E0,0E0],"parents":[2147483647,0,0,1,1,2,2,3,3,5,5,6,6,7,7,8,8,9,9,10,10],"right_children":[2,4,6,8,-1,10,12,14,16,18,20,-1,-1,-1,-1,-1,-1,-1,-1,-1,-1],"split_conditions":[1.326E1,1.29325E1,1.46775E1,1.2366923E1,-9.476659E-2,1.1695E1,1.4786E1,5.1E0,3.7273433E0,1.1463333E1,7E0,9.185351E-2,-8.6755954E-2,8.612519E-2,-1.8144704E-2,1.0545532E-1,-6.1444063E-2,-2.175832E-2,5.949369E-2,-1.1146098E-1,-2.9252106E-2],"split_indices":[8,3,3,3,0,3,3,8,4,3,2,0,0,0,0,0,0,0,0,0,0],"split_type":[0,0,0,0,0,0,0,0,0,0,0,0,0,0,0,0,0,0,0,0,0],"sum_hessian":[1.9348633E2,7.784364E1,1.15642685E2,7.347944E1,4.364205E0,9.4789894E1,2.0852789E1,4.2778618E1,3.070082E1,5.8624607E1,3.6165287E1,1.575554E1,5.0972495E0,8.355816E0,3.4422802E1,2.9438921E1,1.2619003E0,4.0805946E1,1.781866E1,2.5935623E1,1.0229665E1],"tree_param":{"num_deleted":"0","num_feature":"13","num_nodes":"21","size_leaf_vector":"1"}},{"base_weights":[3.4173638E-2,3.3734533E-1,-1.7378537E-1,4.1742107E-1,-9.237007E-2,-3.5483757E-1,5.924594E-1,7.466008E-2,9.1841686E-1,8.2359925E-2,-1.09985806E-1,-1.045071E-1,8.681998E-2,2.379607E-2,-1.0541302E-1,9.923907E-2,-5.638066E-2,-1.8726224E-2,6.2239822E-2,-9.4044276E-2,5.891794E-2],"categories":[],"categories_nodes":[],"categories_segments":[],"categories_sizes":[],"default_left":[0,0,0,0,0,0,0,0,0,0,0,0,0,0,0,0,0,0,0,0,0],"id":61,"left_children":[1,3,5,7,-1,9,11,13,15,17,-1,19,-1,-1,-1,-1,-1,-1,-1,-1,-1],"loss_changes":[1.2097898E1,8.265241E0,1.6014887E1,1.2649523E1,0E0,3.0309486E1,4.3472223E0,8.557629E0,3.8486633E0,8.765034E0,0E0,4.712439E0,0E0,0E0,0E0,0E0,0E0,0E0,0E0,0E0,0E0],"parents":[2147483647,0,0,1,1,2,2,3,3,5,5,6,6,7,7,8,8,9,9,11,11],"right_children":[2,4,6,8,-1,10,12,14,16,18,-1,20,-1,-1,-1,-1,-1,-1,-1,-1,-1],"split_conditions":[1.326E1,1.29325E1,4.4E1,1.2366923E1,-9.237007E-2,1.1695E1,1.45375E1,1.1695E1,3.7273433E0,1.1463333E1,-1.09985806E-1,3.6714797E0,8.681998E-2,2.379607E-2,-1.0541302E-1,9.923907E-2,-5.638066E-2,-1.8726224E-2,6.2239822E-2,-9.4044276E-2,5.891794E-2],"split_indices":[8,3,11,3,0,3,3,3,4,3,0,4,0,0,0,0,0,0,0,0,0],"split_type":[0,0,0,0,0,0,0,0,0,0,0,0,0,0,0,0,0,0,0,0,0],"sum_hessian":[1.8995624E2,7.703259E1,1.12923645E2,7.306217E1,3.9704196E0,9.17754E1,2.1148243E1,4.4064236E1,2.8997938E1,5.8396347E1,3.337905E1,6.1710854E0,1.4977159E1,3.9184635E1,4.8796005E0,2.7934284E1,1.0636545E0,3.9385696E1,1.9010653E1,2.6372805E0,3.5338051E0],"tree_param":{"num_deleted":"0","num_feature":"13","num_nodes":"21","size_leaf_vector":"1"}},{"base_weights":[4.9258158E-2,9.4807796E-2,-4.889761E-3,-4.0724045E-1,1.4706872E-1,2.1422333E-1,-1.10184275E-1,-8.2301956E-1,2.2432198E-1,4.579736E-2,-1.0709854E-1,1.5757691E-2,-9.5518656E-2,6.4787105E-2,3.4329693E-3],"categories":[],"categories_nodes":[],"categories_segments":[],"categories_sizes":[],